//Numpy array shape [784, 100]
//Min -0.326171875000
//Max 0.199218750000
//Number of zeros 50013

#ifndef W2_H_
#define W2_H_

#ifndef __SYNTHESIS__
weight2_t w2[78400];
#else
weight2_t w2[78400] = {0.0000000000, 0.0000000000, 0.0000000000, 0.0000000000, 0.0000000000, 0.0000000000, 0.0000000000, 0.0000000000, 0.0000000000, 0.0000000000, 0.0000000000, 0.0000000000, 0.0000000000, 0.0000000000, 0.0000000000, 0.0000000000, 0.0000000000, 0.0000000000, 0.0000000000, 0.0000000000, 0.0000000000, 0.0000000000, 0.0000000000, 0.0000000000, 0.0000000000, 0.0000000000, 0.0000000000, 0.0000000000, 0.0000000000, 0.0000000000, 0.0000000000, 0.0000000000, 0.0000000000, 0.0000000000, 0.0000000000, 0.0000000000, 0.0000000000, 0.0000000000, 0.0000000000, 0.0000000000, 0.0000000000, 0.0000000000, 0.0000000000, 0.0000000000, 0.0000000000, 0.0000000000, 0.0000000000, 0.0000000000, 0.0000000000, 0.0000000000, 0.0000000000, 0.0000000000, 0.0000000000, 0.0000000000, 0.0000000000, 0.0000000000, 0.0000000000, 0.0000000000, 0.0000000000, 0.0000000000, 0.0000000000, 0.0000000000, 0.0000000000, 0.0000000000, 0.0000000000, 0.0000000000, 0.0000000000, 0.0000000000, 0.0000000000, 0.0000000000, 0.0000000000, 0.0000000000, 0.0000000000, 0.0000000000, 0.0000000000, 0.0000000000, 0.0000000000, 0.0000000000, 0.0000000000, 0.0000000000, 0.0000000000, 0.0000000000, 0.0000000000, 0.0000000000, 0.0000000000, 0.0000000000, 0.0000000000, 0.0000000000, 0.0000000000, 0.0000000000, 0.0000000000, 0.0000000000, 0.0000000000, 0.0000000000, 0.0000000000, 0.0000000000, 0.0000000000, 0.0000000000, 0.0000000000, 0.0000000000, 0.0000000000, 0.0000000000, 0.0000000000, 0.0000000000, 0.0000000000, 0.0000000000, 0.0000000000, 0.0000000000, 0.0000000000, 0.0000000000, 0.0000000000, 0.0000000000, 0.0000000000, 0.0000000000, 0.0000000000, 0.0000000000, 0.0000000000, 0.0000000000, 0.0000000000, 0.0000000000, 0.0000000000, 0.0000000000, 0.0000000000, 0.0000000000, 0.0000000000, 0.0000000000, 0.0000000000, 0.0000000000, 0.0000000000, 0.0000000000, 0.0000000000, 0.0000000000, 0.0000000000, 0.0000000000, 0.0000000000, 0.0000000000, 0.0000000000, 0.0000000000, 0.0000000000, 0.0000000000, 0.0000000000, 0.0000000000, 0.0000000000, 0.0000000000, 0.0000000000, 0.0000000000, 0.0000000000, 0.0000000000, 0.0000000000, 0.0000000000, 0.0000000000, 0.0000000000, 0.0000000000, 0.0000000000, 0.0000000000, 0.0000000000, 0.0000000000, 0.0000000000, 0.0000000000, 0.0000000000, 0.0000000000, 0.0000000000, 0.0000000000, 0.0000000000, 0.0000000000, 0.0000000000, 0.0000000000, 0.0000000000, 0.0000000000, 0.0000000000, 0.0000000000, 0.0000000000, 0.0000000000, 0.0000000000, 0.0000000000, 0.0000000000, 0.0000000000, 0.0000000000, 0.0000000000, 0.0000000000, 0.0000000000, 0.0000000000, 0.0000000000, 0.0000000000, 0.0000000000, 0.0000000000, 0.0000000000, 0.0000000000, 0.0000000000, 0.0000000000, 0.0000000000, 0.0000000000, 0.0000000000, 0.0000000000, 0.0000000000, 0.0000000000, 0.0000000000, 0.0000000000, 0.0000000000, 0.0000000000, 0.0000000000, 0.0000000000, 0.0000000000, 0.0000000000, 0.0000000000, 0.0000000000, 0.0000000000, 0.0000000000, 0.0000000000, 0.0000000000, 0.0000000000, 0.0000000000, 0.0000000000, 0.0000000000, 0.0000000000, 0.0000000000, 0.0000000000, 0.0000000000, 0.0000000000, 0.0000000000, 0.0000000000, 0.0000000000, 0.0000000000, 0.0000000000, 0.0000000000, 0.0000000000, 0.0000000000, 0.0000000000, 0.0000000000, 0.0000000000, 0.0000000000, 0.0000000000, 0.0000000000, 0.0000000000, 0.0000000000, 0.0000000000, 0.0000000000, 0.0000000000, 0.0000000000, 0.0000000000, 0.0000000000, 0.0000000000, 0.0000000000, 0.0000000000, 0.0000000000, 0.0000000000, 0.0000000000, 0.0000000000, 0.0000000000, 0.0000000000, 0.0000000000, 0.0000000000, 0.0000000000, 0.0000000000, 0.0000000000, 0.0000000000, 0.0000000000, 0.0000000000, 0.0000000000, 0.0000000000, 0.0000000000, 0.0000000000, 0.0000000000, 0.0000000000, 0.0000000000, 0.0000000000, 0.0000000000, 0.0000000000, 0.0000000000, 0.0000000000, 0.0000000000, 0.0000000000, 0.0000000000, 0.0000000000, 0.0000000000, 0.0000000000, 0.0000000000, 0.0000000000, 0.0000000000, 0.0000000000, 0.0000000000, 0.0000000000, 0.0000000000, 0.0000000000, 0.0000000000, 0.0000000000, 0.0000000000, 0.0000000000, 0.0000000000, 0.0000000000, 0.0000000000, 0.0000000000, 0.0000000000, 0.0000000000, 0.0000000000, 0.0000000000, 0.0000000000, 0.0000000000, 0.0000000000, 0.0000000000, 0.0000000000, 0.0000000000, 0.0000000000, 0.0000000000, 0.0000000000, 0.0000000000, 0.0000000000, 0.0000000000, 0.0000000000, 0.0000000000, 0.0000000000, 0.0000000000, 0.0000000000, 0.0000000000, 0.0000000000, 0.0000000000, 0.0000000000, 0.0000000000, 0.0000000000, 0.0000000000, 0.0000000000, 0.0000000000, 0.0000000000, 0.0000000000, 0.0000000000, 0.0000000000, 0.0000000000, 0.0000000000, 0.0000000000, 0.0000000000, 0.0000000000, 0.0000000000, 0.0000000000, 0.0000000000, 0.0000000000, 0.0000000000, 0.0000000000, 0.0000000000, 0.0000000000, 0.0000000000, 0.0000000000, 0.0000000000, 0.0000000000, 0.0000000000, 0.0000000000, 0.0000000000, 0.0000000000, 0.0000000000, 0.0000000000, 0.0000000000, 0.0000000000, 0.0000000000, 0.0000000000, 0.0000000000, 0.0000000000, 0.0000000000, 0.0000000000, 0.0000000000, 0.0000000000, 0.0000000000, 0.0000000000, 0.0000000000, 0.0000000000, 0.0000000000, 0.0000000000, 0.0000000000, 0.0000000000, 0.0000000000, 0.0000000000, 0.0000000000, 0.0000000000, 0.0000000000, 0.0000000000, 0.0000000000, 0.0000000000, 0.0000000000, 0.0000000000, 0.0000000000, 0.0000000000, 0.0000000000, 0.0000000000, 0.0000000000, 0.0000000000, 0.0000000000, 0.0000000000, 0.0000000000, 0.0000000000, 0.0000000000, 0.0000000000, 0.0000000000, 0.0000000000, 0.0000000000, 0.0000000000, 0.0000000000, 0.0000000000, 0.0000000000, 0.0000000000, 0.0000000000, 0.0000000000, 0.0000000000, 0.0000000000, 0.0000000000, 0.0000000000, 0.0000000000, 0.0000000000, 0.0000000000, 0.0000000000, 0.0000000000, 0.0000000000, 0.0000000000, 0.0000000000, 0.0000000000, 0.0000000000, 0.0000000000, 0.0000000000, 0.0000000000, 0.0000000000, 0.0000000000, 0.0000000000, 0.0000000000, 0.0000000000, 0.0000000000, 0.0000000000, 0.0000000000, 0.0000000000, 0.0000000000, 0.0000000000, 0.0000000000, 0.0000000000, 0.0000000000, 0.0000000000, 0.0000000000, 0.0000000000, 0.0000000000, 0.0000000000, 0.0000000000, 0.0000000000, 0.0000000000, 0.0000000000, 0.0000000000, 0.0000000000, 0.0000000000, 0.0000000000, 0.0000000000, 0.0000000000, 0.0000000000, 0.0000000000, 0.0000000000, 0.0000000000, 0.0000000000, 0.0000000000, 0.0000000000, 0.0000000000, 0.0000000000, 0.0000000000, 0.0000000000, 0.0000000000, 0.0000000000, 0.0000000000, 0.0000000000, 0.0000000000, 0.0000000000, 0.0000000000, 0.0000000000, 0.0000000000, 0.0000000000, 0.0000000000, 0.0000000000, 0.0000000000, 0.0000000000, 0.0000000000, 0.0000000000, 0.0000000000, 0.0000000000, 0.0000000000, 0.0000000000, 0.0000000000, 0.0000000000, 0.0000000000, 0.0000000000, 0.0000000000, 0.0000000000, 0.0000000000, 0.0000000000, 0.0000000000, 0.0000000000, 0.0000000000, 0.0000000000, 0.0000000000, 0.0000000000, 0.0000000000, 0.0000000000, 0.0000000000, 0.0000000000, 0.0000000000, 0.0000000000, 0.0000000000, 0.0000000000, 0.0000000000, 0.0000000000, 0.0000000000, 0.0000000000, 0.0000000000, 0.0000000000, 0.0000000000, 0.0000000000, 0.0000000000, 0.0000000000, 0.0000000000, 0.0000000000, 0.0000000000, 0.0000000000, 0.0000000000, 0.0000000000, 0.0000000000, 0.0000000000, 0.0000000000, 0.0000000000, 0.0000000000, 0.0000000000, 0.0000000000, 0.0000000000, 0.0000000000, 0.0000000000, 0.0000000000, 0.0000000000, 0.0000000000, 0.0000000000, 0.0000000000, 0.0000000000, 0.0000000000, 0.0000000000, 0.0000000000, 0.0000000000, 0.0000000000, 0.0000000000, 0.0000000000, 0.0000000000, 0.0000000000, 0.0000000000, 0.0000000000, 0.0000000000, 0.0000000000, 0.0000000000, 0.0000000000, 0.0000000000, 0.0000000000, 0.0000000000, 0.0000000000, 0.0000000000, 0.0000000000, 0.0000000000, 0.0000000000, 0.0000000000, 0.0000000000, 0.0000000000, 0.0000000000, 0.0000000000, 0.0000000000, 0.0000000000, 0.0000000000, 0.0000000000, 0.0000000000, 0.0000000000, 0.0000000000, 0.0000000000, 0.0000000000, 0.0000000000, 0.0000000000, 0.0000000000, 0.0000000000, 0.0000000000, 0.0000000000, 0.0000000000, 0.0000000000, 0.0000000000, 0.0000000000, 0.0000000000, 0.0000000000, 0.0000000000, 0.0000000000, 0.0000000000, 0.0000000000, 0.0000000000, 0.0000000000, 0.0000000000, 0.0000000000, 0.0000000000, 0.0000000000, 0.0000000000, 0.0000000000, 0.0000000000, 0.0000000000, 0.0000000000, 0.0000000000, 0.0000000000, 0.0000000000, 0.0000000000, 0.0000000000, 0.0000000000, 0.0000000000, 0.0000000000, 0.0000000000, 0.0000000000, 0.0000000000, 0.0000000000, 0.0000000000, 0.0000000000, 0.0000000000, 0.0000000000, 0.0000000000, 0.0000000000, 0.0000000000, 0.0000000000, 0.0000000000, 0.0000000000, 0.0000000000, 0.0000000000, 0.0000000000, 0.0000000000, 0.0000000000, 0.0000000000, 0.0000000000, 0.0000000000, 0.0000000000, 0.0000000000, 0.0000000000, 0.0000000000, 0.0000000000, 0.0000000000, 0.0000000000, 0.0000000000, 0.0000000000, 0.0000000000, 0.0000000000, 0.0000000000, 0.0000000000, 0.0000000000, 0.0000000000, 0.0000000000, 0.0000000000, 0.0000000000, 0.0000000000, 0.0000000000, 0.0000000000, 0.0000000000, 0.0000000000, 0.0000000000, 0.0000000000, 0.0000000000, 0.0000000000, 0.0000000000, 0.0000000000, 0.0000000000, 0.0000000000, 0.0000000000, 0.0000000000, 0.0000000000, 0.0000000000, 0.0000000000, 0.0000000000, 0.0000000000, 0.0000000000, 0.0000000000, 0.0000000000, 0.0000000000, 0.0000000000, 0.0000000000, 0.0000000000, 0.0000000000, 0.0000000000, 0.0000000000, 0.0000000000, 0.0000000000, 0.0000000000, 0.0000000000, 0.0000000000, 0.0000000000, 0.0000000000, 0.0000000000, 0.0000000000, 0.0000000000, 0.0000000000, 0.0000000000, 0.0000000000, 0.0000000000, 0.0000000000, 0.0000000000, 0.0000000000, 0.0000000000, 0.0000000000, 0.0000000000, 0.0000000000, 0.0000000000, 0.0000000000, 0.0000000000, 0.0000000000, 0.0000000000, 0.0000000000, 0.0000000000, 0.0000000000, 0.0000000000, 0.0000000000, 0.0000000000, 0.0000000000, 0.0000000000, 0.0000000000, 0.0000000000, 0.0000000000, 0.0000000000, 0.0000000000, 0.0000000000, 0.0000000000, 0.0000000000, 0.0000000000, 0.0000000000, 0.0000000000, 0.0000000000, 0.0000000000, 0.0000000000, 0.0000000000, 0.0000000000, 0.0000000000, 0.0000000000, 0.0000000000, 0.0000000000, 0.0000000000, 0.0000000000, 0.0000000000, 0.0000000000, 0.0000000000, 0.0000000000, 0.0000000000, 0.0000000000, 0.0000000000, 0.0000000000, 0.0000000000, 0.0000000000, 0.0000000000, 0.0000000000, 0.0000000000, 0.0000000000, 0.0000000000, 0.0000000000, 0.0000000000, 0.0000000000, 0.0000000000, 0.0000000000, 0.0000000000, 0.0000000000, 0.0000000000, 0.0000000000, 0.0000000000, 0.0000000000, 0.0000000000, 0.0000000000, 0.0000000000, 0.0000000000, 0.0000000000, 0.0000000000, 0.0000000000, 0.0000000000, 0.0000000000, 0.0000000000, 0.0000000000, 0.0000000000, 0.0000000000, 0.0000000000, 0.0000000000, 0.0000000000, 0.0000000000, 0.0000000000, 0.0000000000, 0.0000000000, 0.0000000000, 0.0000000000, 0.0000000000, 0.0000000000, 0.0000000000, 0.0000000000, 0.0000000000, 0.0000000000, 0.0000000000, 0.0000000000, 0.0000000000, 0.0000000000, 0.0000000000, -0.0019531250, 0.0039062500, 0.0000000000, -0.0253906250, -0.0039062500, 0.0019531250, 0.0000000000, 0.0078125000, 0.0000000000, 0.0664062500, 0.0000000000, -0.0097656250, -0.0312500000, -0.0175781250, 0.0000000000, 0.0000000000, 0.0957031250, 0.0039062500, 0.0000000000, 0.0058593750, 0.0000000000, 0.0000000000, 0.0000000000, 0.0000000000, 0.0000000000, 0.0000000000, 0.0000000000, 0.0000000000, 0.0000000000, 0.0000000000, -0.0898437500, 0.0371093750, -0.0039062500, 0.0000000000, 0.0019531250, 0.0000000000, 0.0820312500, -0.0097656250, -0.0332031250, -0.0117187500, -0.0058593750, -0.0058593750, 0.0000000000, 0.0000000000, 0.0000000000, 0.0000000000, 0.0000000000, 0.0000000000, -0.0078125000, 0.0000000000, 0.0000000000, 0.0000000000, 0.0000000000, 0.0000000000, 0.0000000000, -0.0292968750, 0.0000000000, 0.0000000000, 0.0039062500, 0.0058593750, 0.0000000000, 0.0000000000, 0.0000000000, 0.0000000000, -0.0097656250, 0.0000000000, 0.0000000000, 0.0585937500, 0.0000000000, 0.0000000000, 0.0000000000, -0.0019531250, 0.0000000000, 0.0000000000, 0.0000000000, 0.0000000000, 0.0000000000, -0.0527343750, 0.0000000000, 0.0000000000, 0.0000000000, 0.0000000000, 0.0000000000, 0.0000000000, -0.0097656250, 0.0000000000, 0.0000000000, 0.0000000000, -0.0019531250, 0.0039062500, 0.0000000000, 0.0000000000, -0.0156250000, -0.0019531250, 0.0000000000, 0.0253906250, 0.0000000000, 0.0000000000, 0.0000000000, 0.0000000000, 0.0000000000, 0.0000000000, 0.0000000000, 0.0039062500, 0.0000000000, 0.0000000000, 0.0000000000, 0.0000000000, 0.0000000000, 0.0000000000, 0.0000000000, -0.0507812500, 0.0000000000, 0.0000000000, 0.0000000000, 0.0000000000, 0.0000000000, 0.0000000000, 0.0000000000, 0.0058593750, 0.0000000000, 0.0000000000, 0.0000000000, 0.0175781250, 0.0527343750, 0.0078125000, 0.0000000000, 0.0000000000, 0.0000000000, 0.0000000000, -0.0292968750, -0.0019531250, 0.0000000000, 0.0000000000, -0.0468750000, 0.0000000000, 0.0000000000, 0.0000000000, -0.0156250000, 0.0000000000, 0.0000000000, 0.0000000000, 0.0000000000, -0.0351562500, 0.0000000000, 0.0000000000, 0.0019531250, 0.0390625000, 0.0000000000, 0.0000000000, 0.0000000000, 0.0000000000, 0.0292968750, 0.0253906250, 0.0000000000, 0.0000000000, -0.0214843750, 0.0000000000, 0.0000000000, -0.0019531250, -0.0078125000, 0.0000000000, 0.0000000000, -0.0722656250, 0.0000000000, 0.0000000000, 0.0000000000, -0.0078125000, 0.0000000000, 0.0175781250, 0.0000000000, 0.0000000000, 0.0000000000, 0.0000000000, 0.0000000000, 0.0000000000, 0.0000000000, 0.0058593750, 0.0000000000, 0.0800781250, 0.0000000000, 0.0000000000, 0.0000000000, -0.0136718750, -0.0449218750, 0.0000000000, 0.0000000000, -0.0019531250, -0.0332031250, 0.0000000000, -0.0039062500, -0.0117187500, 0.0000000000, -0.0214843750, 0.0000000000, -0.0039062500, 0.0000000000, 0.0253906250, 0.0117187500, 0.0000000000, 0.0000000000, 0.0000000000, 0.0000000000, -0.0468750000, -0.0039062500, 0.0000000000, -0.0019531250, 0.0625000000, 0.0000000000, -0.0468750000, -0.0175781250, -0.0058593750, -0.0820312500, -0.0664062500, 0.0058593750, 0.0000000000, 0.0000000000, -0.0156250000, -0.0117187500, 0.0000000000, 0.0000000000, 0.0000000000, 0.0000000000, 0.0000000000, 0.0000000000, 0.0136718750, 0.0000000000, 0.0000000000, -0.0039062500, -0.0546875000, 0.0000000000, -0.0097656250, 0.0000000000, 0.0000000000, 0.0000000000, 0.0351562500, 0.0332031250, 0.0000000000, 0.0000000000, -0.0703125000, -0.0683593750, -0.0117187500, 0.0000000000, 0.0000000000, -0.0253906250, -0.0371093750, -0.0019531250, 0.0000000000, 0.0019531250, 0.0000000000, 0.0000000000, -0.0527343750, 0.0000000000, 0.0000000000, 0.0000000000, 0.0000000000, 0.0000000000, 0.0000000000, -0.0156250000, 0.0000000000, 0.0000000000, 0.0000000000, 0.0000000000, -0.0058593750, 0.0859375000, 0.0253906250, 0.0136718750, 0.0000000000, 0.0039062500, -0.0039062500, 0.0000000000, 0.0878906250, 0.0019531250, 0.0000000000, 0.0000000000, 0.0000000000, 0.0019531250, 0.0000000000, 0.0000000000, 0.0000000000, 0.0000000000, 0.0000000000, 0.0000000000, 0.0000000000, -0.0234375000, 0.0468750000, -0.0214843750, 0.0000000000, -0.0585937500, 0.0000000000, -0.0273437500, -0.0097656250, 0.0058593750, 0.0253906250, 0.0214843750, 0.0078125000, 0.0214843750, 0.0351562500, 0.0644531250, 0.0156250000, -0.0019531250, 0.0000000000, 0.0000000000, 0.0000000000, 0.0097656250, -0.0097656250, -0.0136718750, 0.0000000000, 0.0000000000, 0.0000000000, 0.0156250000, 0.0000000000, 0.0000000000, 0.0078125000, 0.0000000000, -0.0234375000, 0.0000000000, -0.0039062500, -0.0253906250, -0.0214843750, 0.0000000000, 0.0078125000, 0.0019531250, 0.0000000000, 0.0507812500, 0.0000000000, 0.0000000000, 0.1093750000, 0.0000000000, 0.0000000000, 0.0000000000, 0.0175781250, -0.0039062500, 0.0000000000, 0.0000000000, 0.0000000000, 0.0000000000, 0.0039062500, 0.0332031250, 0.0351562500, 0.0625000000, 0.0332031250, 0.0000000000, 0.0000000000, 0.0000000000, -0.0058593750, 0.0000000000, -0.0703125000, -0.1191406250, 0.0000000000, -0.0175781250, -0.0488281250, 0.0000000000, 0.0000000000, -0.0117187500, 0.0000000000, 0.0000000000, 0.0000000000, 0.0000000000, 0.0019531250, 0.0000000000, 0.0000000000, -0.0312500000, -0.0136718750, -0.0332031250, 0.0117187500, 0.0000000000, 0.0000000000, 0.0878906250, 0.0292968750, 0.0000000000, 0.0000000000, -0.0117187500, 0.0039062500, 0.0000000000, 0.0000000000, -0.0371093750, -0.0976562500, -0.0468750000, 0.0000000000, 0.0000000000, 0.0000000000, 0.0000000000, 0.0000000000, 0.0000000000, -0.0292968750, 0.0000000000, 0.0312500000, 0.0000000000, -0.0644531250, 0.0000000000, -0.1542968750, 0.0000000000, 0.0058593750, 0.0429687500, 0.0058593750, 0.0898437500, 0.0078125000, 0.0000000000, 0.0000000000, -0.0136718750, 0.0449218750, 0.0000000000, -0.0449218750, -0.0117187500, -0.0878906250, 0.0000000000, -0.0546875000, 0.0000000000, 0.0996093750, 0.0449218750, 0.0117187500, 0.0097656250, 0.0273437500, 0.0000000000, 0.0000000000, -0.0117187500, -0.0312500000, -0.1035156250, -0.0957031250, -0.0566406250, 0.0000000000, 0.0546875000, 0.0175781250, 0.0546875000, 0.0000000000, 0.0000000000, 0.0000000000, -0.0449218750, 0.0000000000, -0.0097656250, 0.0000000000, 0.0000000000, -0.1152343750, 0.0019531250, -0.0117187500, 0.0000000000, -0.0019531250, 0.0332031250, 0.0449218750, 0.0234375000, 0.0156250000, 0.0000000000, -0.0136718750, -0.0039062500, -0.0351562500, 0.0039062500, -0.0195312500, -0.0078125000, 0.0000000000, 0.0000000000, 0.0878906250, 0.0000000000, 0.0000000000, 0.0000000000, 0.0000000000, 0.0000000000, 0.0000000000, 0.0000000000, 0.0000000000, 0.0000000000, -0.0722656250, 0.0000000000, -0.0312500000, 0.0000000000, -0.0136718750, 0.0000000000, 0.0214843750, 0.0976562500, 0.0175781250, 0.0000000000, -0.0156250000, -0.0625000000, -0.0097656250, 0.0000000000, -0.0429687500, 0.0136718750, 0.0000000000, 0.1015625000, 0.0820312500, 0.0000000000, 0.0312500000, 0.0195312500, 0.0175781250, 0.0058593750, 0.0156250000, 0.0000000000, 0.0000000000, 0.0410156250, -0.0488281250, -0.0019531250, 0.0000000000, 0.0000000000, 0.0000000000, 0.0000000000, 0.1093750000, 0.0000000000, 0.0000000000, -0.0019531250, -0.0156250000, 0.0000000000, -0.0019531250, 0.0019531250, -0.0449218750, 0.0000000000, 0.0117187500, 0.0605468750, 0.0800781250, 0.0234375000, 0.0156250000, 0.0000000000, -0.0136718750, 0.0019531250, 0.0000000000, -0.0781250000, 0.0000000000, 0.0000000000, -0.0839843750, 0.0000000000, 0.0000000000, 0.0039062500, 0.0000000000, 0.0000000000, 0.0000000000, -0.0058593750, 0.0000000000, 0.0000000000, 0.0000000000, 0.0000000000, 0.0917968750, 0.0117187500, 0.0507812500, 0.0097656250, 0.0000000000, 0.0000000000, 0.0000000000, 0.0000000000, 0.0000000000, -0.0371093750, -0.0019531250, -0.0214843750, 0.0000000000, -0.0156250000, -0.0039062500, 0.0000000000, 0.0000000000, 0.0000000000, -0.0136718750, 0.0000000000, 0.0000000000, -0.0078125000, 0.0117187500, 0.0000000000, 0.0000000000, 0.0253906250, 0.0000000000, 0.0000000000, 0.0019531250, 0.0078125000, 0.0292968750, 0.0878906250, 0.0058593750, 0.0000000000, 0.0000000000, 0.0000000000, 0.0000000000, 0.0000000000, -0.0761718750, -0.0019531250, 0.0000000000, -0.0039062500, 0.0000000000, 0.0019531250, 0.0000000000, 0.0000000000, 0.0136718750, 0.0000000000, -0.0175781250, -0.0449218750, 0.0000000000, -0.0078125000, 0.0000000000, 0.0117187500, 0.0000000000, -0.0195312500, -0.0214843750, 0.0000000000, 0.0058593750, 0.0000000000, 0.0000000000, 0.0000000000, 0.0000000000, 0.0000000000, 0.0000000000, 0.0000000000, -0.0703125000, -0.0097656250, 0.0000000000, 0.0000000000, 0.0000000000, 0.0000000000, 0.0058593750, 0.0078125000, 0.0000000000, 0.0058593750, 0.0117187500, -0.0253906250, 0.0019531250, 0.0195312500, 0.0000000000, 0.0000000000, -0.0605468750, 0.0000000000, -0.0410156250, -0.0234375000, 0.0000000000, 0.0000000000, 0.0000000000, 0.0156250000, 0.0000000000, 0.0000000000, 0.0000000000, 0.0000000000, -0.0156250000, -0.0117187500, 0.0000000000, 0.0000000000, -0.0292968750, 0.0000000000, 0.0000000000, 0.0000000000, 0.0000000000, 0.0000000000, 0.0039062500, -0.0097656250, 0.0000000000, 0.0000000000, -0.0019531250, 0.0019531250, -0.0371093750, 0.0000000000, -0.0058593750, 0.0000000000, 0.0000000000, 0.0000000000, 0.0000000000, 0.0000000000, 0.0000000000, 0.0078125000, 0.0019531250, 0.0000000000, 0.0000000000, 0.0000000000, 0.0000000000, 0.0000000000, 0.0000000000, 0.0000000000, 0.0000000000, 0.0000000000, 0.0000000000, 0.0000000000, 0.0371093750, 0.0000000000, 0.0429687500, 0.0000000000, 0.0000000000, -0.0253906250, 0.0000000000, -0.0976562500, 0.0000000000, 0.0000000000, 0.0000000000, 0.0000000000, 0.0019531250, 0.0000000000, 0.0800781250, 0.0058593750, 0.0000000000, 0.0000000000, 0.0000000000, 0.0000000000, 0.0000000000, 0.0000000000, 0.0000000000, 0.0000000000, 0.0000000000, 0.0000000000, -0.0019531250, -0.0058593750, 0.0332031250, 0.0000000000, 0.0527343750, 0.1152343750, 0.0000000000, -0.0429687500, 0.0000000000, 0.0000000000, -0.0136718750, -0.0058593750, -0.0078125000, 0.0000000000, 0.0097656250, 0.0000000000, 0.0019531250, 0.0000000000, 0.0000000000, 0.0019531250, -0.0195312500, -0.0019531250, 0.0000000000, 0.0000000000, -0.0039062500, 0.0000000000, 0.0000000000, 0.0000000000, -0.0488281250, -0.0078125000, 0.0000000000, 0.0000000000, 0.0019531250, 0.1113281250, 0.0058593750, 0.0000000000, 0.0000000000, -0.0273437500, 0.0000000000, -0.0156250000, 0.0000000000, 0.0234375000, 0.0000000000, 0.0000000000, 0.0000000000, 0.0000000000, 0.0000000000, 0.0000000000, 0.0000000000, 0.0000000000, 0.0000000000, 0.0000000000, -0.0175781250, 0.0000000000, 0.0175781250, 0.0000000000, 0.0000000000, 0.0000000000, 0.0058593750, 0.0351562500, 0.0312500000, 0.0000000000, 0.0625000000, 0.0000000000, 0.0000000000, -0.0996093750, 0.0156250000, 0.0000000000, 0.0000000000, 0.0000000000, 0.0000000000, 0.0019531250, 0.0000000000, -0.0078125000, -0.1035156250, 0.0000000000, 0.0000000000, 0.0000000000, 0.0000000000, 0.0000000000, -0.0019531250, 0.0000000000, 0.0000000000, 0.0000000000, 0.0000000000, 0.0000000000, 0.0000000000, 0.0000000000, 0.0058593750, 0.1074218750, 0.0000000000, 0.0078125000, 0.0449218750, 0.0019531250, 0.0000000000, 0.0000000000, -0.0058593750, 0.0722656250, -0.0449218750, 0.0000000000, -0.0195312500, -0.0039062500, 0.0000000000, -0.0039062500, 0.0214843750, 0.0234375000, 0.0000000000, -0.0371093750, -0.0390625000, -0.0136718750, -0.0019531250, 0.1328125000, 0.0527343750, -0.0117187500, -0.0136718750, 0.0019531250, -0.0019531250, -0.0136718750, 0.0078125000, 0.0078125000, 0.0000000000, 0.0000000000, 0.0000000000, 0.0000000000, 0.0000000000, 0.0000000000, -0.0175781250, 0.0000000000, 0.0117187500, 0.0019531250, 0.0429687500, 0.0253906250, 0.0292968750, 0.0214843750, 0.0019531250, -0.0019531250, -0.0273437500, -0.0058593750, 0.0058593750, 0.1679687500, 0.0175781250, -0.0058593750, 0.0000000000, 0.0292968750, 0.0000000000, -0.0019531250, 0.0039062500, 0.0000000000, 0.0000000000, 0.0000000000, 0.0000000000, 0.0000000000, -0.0019531250, 0.0000000000, 0.0000000000, 0.0078125000, 0.0175781250, 0.0000000000, 0.0019531250, 0.0000000000, -0.0117187500, 0.0000000000, 0.0000000000, 0.0000000000, 0.0000000000, 0.0000000000, -0.0449218750, 0.0000000000, 0.0000000000, 0.0136718750, 0.0019531250, 0.0000000000, 0.0058593750, -0.0664062500, 0.0000000000, 0.0097656250, -0.0039062500, 0.0000000000, 0.0000000000, 0.0000000000, 0.0000000000, 0.0000000000, 0.0000000000, 0.0000000000, 0.0000000000, -0.0039062500, -0.0546875000, -0.0156250000, 0.0000000000, 0.0000000000, 0.0000000000, 0.0000000000, 0.0058593750, 0.0078125000, 0.0058593750, 0.0078125000, -0.0781250000, 0.0000000000, -0.0800781250, -0.0117187500, 0.0000000000, -0.0019531250, -0.0039062500, 0.0195312500, 0.0000000000, 0.0000000000, 0.0000000000, 0.0000000000, 0.0000000000, -0.0117187500, 0.0019531250, 0.0000000000, -0.0097656250, -0.0019531250, 0.0000000000, 0.0000000000, 0.0000000000, 0.0000000000, 0.0000000000, 0.0019531250, 0.0000000000, 0.0078125000, 0.0058593750, 0.0136718750, 0.0000000000, 0.0000000000, 0.0000000000, 0.0000000000, 0.0000000000, 0.0000000000, -0.0019531250, 0.0000000000, 0.0000000000, 0.0000000000, 0.0000000000, 0.0000000000, 0.0000000000, 0.0000000000, 0.0000000000, 0.0019531250, -0.0078125000, -0.0058593750, 0.0000000000, 0.0000000000, -0.0273437500, 0.0000000000, 0.0000000000, -0.0019531250, 0.0000000000, 0.0000000000, 0.0019531250, 0.0019531250, 0.0000000000, -0.0019531250, 0.0000000000, -0.0507812500, 0.0000000000, 0.0136718750, 0.0000000000, -0.0039062500, 0.0000000000, 0.0000000000, 0.0000000000, 0.0000000000, 0.0000000000, 0.0039062500, 0.0039062500, 0.0019531250, -0.0214843750, -0.0039062500, 0.0000000000, 0.0000000000, -0.0273437500, 0.0000000000, 0.0097656250, 0.0273437500, 0.0332031250, 0.0117187500, 0.0000000000, 0.0000000000, 0.0000000000, 0.0000000000, -0.0429687500, -0.0214843750, 0.0019531250, 0.0214843750, 0.0234375000, 0.0000000000, 0.0000000000, 0.0136718750, 0.0000000000, 0.0000000000, 0.0078125000, 0.0039062500, 0.0078125000, -0.0195312500, -0.0097656250, 0.0000000000, -0.0019531250, -0.0410156250, -0.0175781250, 0.0000000000, 0.0410156250, 0.0781250000, 0.0000000000, 0.0859375000, 0.0058593750, 0.0000000000, -0.0390625000, -0.0781250000, 0.0000000000, 0.0000000000, 0.0000000000, 0.0000000000, 0.0214843750, 0.0683593750, 0.0000000000, 0.0019531250, 0.0000000000, 0.0000000000, 0.0000000000, 0.0000000000, 0.0000000000, 0.0000000000, -0.0039062500, 0.0000000000, -0.0078125000, -0.0234375000, -0.0859375000, 0.0000000000, 0.0332031250, 0.0058593750, 0.0000000000, 0.0000000000, 0.0000000000, -0.0097656250, 0.0000000000, -0.0312500000, 0.0000000000, 0.0000000000, 0.0058593750, 0.0000000000, 0.0996093750, 0.0000000000, 0.0000000000, -0.0019531250, 0.0000000000, 0.0000000000, 0.0078125000, 0.0000000000, 0.0000000000, 0.0039062500, -0.0078125000, 0.0000000000, -0.0078125000, -0.0039062500, -0.0019531250, 0.0000000000, 0.0000000000, 0.0000000000, 0.0000000000, 0.0000000000, 0.0214843750, -0.0625000000, 0.0000000000, 0.0000000000, 0.0000000000, 0.0000000000, 0.0000000000, 0.0039062500, 0.0000000000, 0.0000000000, 0.0000000000, 0.0000000000, 0.0625000000, 0.0000000000, 0.0000000000, 0.0000000000, 0.0117187500, 0.0195312500, 0.0000000000, 0.0039062500, 0.0000000000, 0.0039062500, 0.0039062500, 0.0039062500, 0.0058593750, 0.0000000000, 0.0000000000, 0.0078125000, 0.0117187500, -0.0136718750, 0.0039062500, 0.0000000000, 0.0000000000, 0.0078125000, 0.0097656250, 0.1113281250, 0.0351562500, 0.0000000000, -0.0136718750, 0.0000000000, 0.0000000000, 0.0234375000, 0.0000000000, -0.0058593750, 0.0000000000, 0.0117187500, -0.0039062500, 0.0292968750, 0.0000000000, 0.0039062500, 0.0019531250, 0.0136718750, 0.0039062500, 0.0136718750, 0.0000000000, 0.0000000000, 0.0000000000, 0.0000000000, 0.0000000000, 0.0000000000, 0.0000000000, 0.0312500000, 0.0214843750, 0.0000000000, 0.0410156250, 0.0039062500, -0.0214843750, 0.0000000000, 0.0000000000, 0.0859375000, 0.0000000000, -0.0058593750, 0.0000000000, 0.0000000000, -0.0156250000, 0.0000000000, 0.0000000000, 0.0097656250, 0.0253906250, 0.0195312500, 0.0000000000, 0.0000000000, 0.0546875000, 0.0000000000, 0.0097656250, 0.0000000000, 0.0000000000, 0.0000000000, 0.0058593750, 0.0000000000, 0.0058593750, 0.0312500000, 0.0136718750, 0.0195312500, -0.1718750000, -0.0253906250, 0.0000000000, 0.0000000000, -0.0507812500, -0.0410156250, 0.0000000000, -0.0234375000, -0.0312500000, 0.0039062500, 0.0019531250, 0.0019531250, 0.0000000000, 0.0000000000, 0.0410156250, 0.0234375000, 0.0332031250, 0.0351562500, 0.0039062500, 0.0429687500, 0.0019531250, 0.0000000000, 0.0058593750, -0.0156250000, 0.0019531250, 0.0000000000, 0.0175781250, 0.0097656250, -0.0078125000, -0.0117187500, 0.0000000000, -0.0488281250, -0.0156250000, 0.0000000000, -0.0351562500, 0.0000000000, -0.0039062500, -0.0019531250, 0.0000000000, 0.0000000000, 0.0000000000, 0.0019531250, 0.0000000000, 0.0039062500, -0.0019531250, 0.0000000000, 0.0039062500, 0.0332031250, 0.0019531250, -0.0019531250, 0.0351562500, 0.0000000000, 0.0507812500, 0.0058593750, 0.0488281250, 0.0019531250, -0.0019531250, -0.1210937500, 0.0078125000, -0.0097656250, -0.0039062500, -0.0039062500, -0.0097656250, -0.0078125000, -0.0058593750, 0.0000000000, 0.0000000000, 0.0000000000, 0.0234375000, 0.0000000000, -0.0117187500, 0.0000000000, 0.0058593750, -0.0058593750, 0.0058593750, 0.0000000000, -0.0078125000, -0.0039062500, -0.0019531250, -0.0175781250, 0.0000000000, 0.0000000000, 0.0000000000, -0.0019531250, 0.0000000000, -0.0078125000, 0.0000000000, -0.0175781250, 0.0039062500, 0.0000000000, 0.0000000000, 0.0000000000, -0.0078125000, -0.0214843750, -0.0039062500, 0.0019531250, 0.0566406250, 0.0000000000, -0.0136718750, 0.0898437500, 0.0019531250, 0.0000000000, 0.0000000000, 0.0000000000, 0.0000000000, -0.0039062500, -0.0019531250, 0.0000000000, 0.0000000000, 0.0273437500, 0.0156250000, 0.0000000000, 0.0000000000, -0.0507812500, -0.1699218750, -0.0214843750, 0.1054687500, 0.0312500000, 0.0136718750, 0.0000000000, 0.0000000000, -0.0273437500, -0.0019531250, -0.0234375000, 0.0000000000, 0.0000000000, 0.0058593750, 0.0078125000, 0.0292968750, 0.0312500000, 0.0019531250, 0.0117187500, 0.0371093750, 0.0000000000, -0.0097656250, -0.0058593750, -0.0019531250, 0.0000000000, 0.0000000000, 0.0000000000, 0.0000000000, 0.0000000000, 0.0000000000, -0.0273437500, 0.1054687500, -0.0058593750, 0.0000000000, -0.0839843750, 0.0000000000, -0.0078125000, 0.0000000000, 0.0000000000, 0.0449218750, 0.0000000000, 0.0039062500, 0.0058593750, 0.0000000000, 0.0000000000, 0.0253906250, 0.0234375000, 0.0019531250, -0.0292968750, -0.0175781250, -0.0097656250, 0.0000000000, 0.0000000000, 0.0000000000, 0.0000000000, -0.0156250000, -0.0820312500, 0.0351562500, 0.0000000000, 0.0898437500, 0.0195312500, 0.0000000000, 0.0000000000, 0.0000000000, -0.0195312500, -0.0156250000, 0.0000000000, 0.0000000000, -0.0039062500, -0.0058593750, 0.0000000000, 0.0000000000, 0.0000000000, 0.0000000000, 0.0000000000, 0.0000000000, 0.0000000000, 0.0000000000, 0.0000000000, -0.0019531250, 0.0000000000, 0.0000000000, 0.0000000000, 0.0019531250, 0.0019531250, 0.0000000000, 0.0019531250, 0.0859375000, 0.0000000000, 0.0234375000, 0.0000000000, 0.0000000000, -0.0156250000, -0.0117187500, -0.0156250000, 0.0039062500, 0.0078125000, -0.0019531250, 0.0000000000, 0.0000000000, -0.0273437500, 0.0000000000, 0.0097656250, 0.0039062500, -0.0019531250, -0.0078125000, 0.0097656250, 0.0000000000, 0.0000000000, 0.0000000000, 0.0078125000, 0.0000000000, 0.0175781250, 0.0234375000, -0.0039062500, 0.0019531250, 0.0000000000, 0.0156250000, 0.0039062500, 0.0000000000, -0.0058593750, 0.0000000000, 0.0000000000, 0.0000000000, 0.0390625000, 0.0000000000, 0.0000000000, 0.0000000000, 0.0000000000, 0.0000000000, 0.0000000000, -0.0078125000, -0.0019531250, -0.0019531250, 0.0000000000, 0.0371093750, 0.0546875000, 0.0000000000, 0.0039062500, 0.0683593750, 0.0000000000, 0.0195312500, 0.0019531250, 0.0000000000, 0.0292968750, 0.0078125000, 0.0000000000, -0.0019531250, 0.0000000000, 0.0019531250, 0.0000000000, 0.0000000000, 0.0117187500, 0.0000000000, -0.0019531250, 0.0000000000, -0.0039062500, 0.0000000000, 0.0000000000, -0.0058593750, 0.0000000000, 0.0195312500, 0.0078125000, 0.0000000000, 0.0000000000, 0.0000000000, 0.0000000000, 0.0371093750, 0.0000000000, 0.0429687500, 0.0000000000, 0.0000000000, 0.0019531250, 0.0703125000, 0.0000000000, 0.0000000000, 0.0000000000, 0.0000000000, 0.0000000000, 0.0000000000, 0.0058593750, 0.0000000000, -0.0019531250, 0.0000000000, 0.0000000000, 0.0000000000, 0.0000000000, 0.0000000000, 0.0000000000, 0.0175781250, 0.0078125000, 0.0019531250, 0.0000000000, 0.0000000000, 0.0097656250, 0.0000000000, 0.0000000000, -0.0234375000, 0.0000000000, 0.0000000000, -0.0019531250, 0.0019531250, 0.0429687500, 0.0058593750, 0.0000000000, 0.0000000000, 0.0000000000, 0.0000000000, 0.0000000000, -0.0058593750, 0.0000000000, 0.0000000000, 0.0000000000, -0.0019531250, 0.0000000000, 0.0000000000, 0.0000000000, 0.0000000000, 0.0058593750, 0.0000000000, 0.0000000000, -0.0117187500, 0.0000000000, 0.0000000000, 0.0000000000, -0.0039062500, 0.0058593750, -0.0175781250, 0.0000000000, 0.0000000000, 0.0000000000, 0.0058593750, 0.0605468750, 0.0000000000, 0.0000000000, 0.0000000000, -0.0253906250, -0.0058593750, 0.0000000000, -0.0019531250, -0.0019531250, -0.0371093750, -0.0468750000, 0.0000000000, 0.0000000000, 0.0000000000, 0.0703125000, 0.0000000000, 0.0000000000, 0.0000000000, 0.0000000000, 0.0000000000, -0.0156250000, 0.0000000000, 0.0000000000, 0.0000000000, -0.0078125000, -0.0253906250, 0.0000000000, -0.0097656250, 0.0000000000, 0.0000000000, 0.0000000000, -0.0097656250, -0.0058593750, -0.0097656250, -0.0156250000, -0.0234375000, -0.0253906250, -0.0039062500, 0.0000000000, 0.0000000000, -0.0019531250, 0.0000000000, -0.0097656250, 0.0000000000, -0.0175781250, -0.0136718750, -0.0136718750, -0.0097656250, 0.0058593750, -0.0019531250, 0.0000000000, -0.0019531250, -0.0488281250, -0.0156250000, 0.0195312500, -0.0117187500, 0.0000000000, 0.0000000000, 0.0000000000, 0.0000000000, -0.0273437500, -0.0664062500, 0.0000000000, 0.0000000000, -0.0332031250, -0.0117187500, -0.0039062500, -0.0214843750, -0.0136718750, 0.0000000000, 0.0000000000, 0.0039062500, 0.0390625000, 0.0000000000, -0.0253906250, 0.0000000000, 0.0078125000, 0.0000000000, 0.0000000000, 0.0000000000, -0.0039062500, 0.0078125000, 0.0156250000, 0.0000000000, 0.0000000000, 0.0000000000, 0.0000000000, -0.1933593750, -0.0253906250, -0.0058593750, -0.0058593750, -0.0058593750, 0.0156250000, 0.0175781250, -0.0644531250, 0.0000000000, -0.0468750000, -0.0449218750, 0.0000000000, 0.0000000000, 0.0000000000, 0.0000000000, 0.0000000000, 0.0000000000, 0.0000000000, 0.0000000000, 0.0000000000, 0.0000000000, -0.0117187500, 0.0000000000, 0.0000000000, 0.0000000000, -0.0253906250, 0.0000000000, -0.0703125000, -0.0253906250, -0.0175781250, 0.0039062500, 0.0019531250, 0.0957031250, 0.1152343750, -0.0253906250, -0.0781250000, -0.0996093750, -0.1308593750, -0.0039062500, -0.0058593750, 0.0000000000, 0.0000000000, 0.0000000000, 0.0000000000, 0.0000000000, 0.0000000000, 0.0000000000, 0.0000000000, 0.0000000000, 0.0000000000, 0.0000000000, 0.0000000000, -0.0644531250, -0.0644531250, -0.1035156250, 0.0000000000, 0.0136718750, -0.0078125000, 0.0000000000, 0.0000000000, 0.1289062500, 0.0761718750, -0.0371093750, 0.0039062500, 0.0273437500, 0.0000000000, -0.0078125000, -0.0078125000, 0.0000000000, 0.0000000000, 0.0000000000, 0.0000000000, 0.0000000000, 0.0000000000, 0.0000000000, 0.0000000000, 0.0000000000, 0.0000000000, 0.0195312500, 0.0000000000, 0.0019531250, 0.0371093750, -0.0097656250, 0.1289062500, 0.0703125000, -0.0292968750, -0.0351562500, 0.0761718750, 0.1035156250, 0.0214843750, -0.0234375000, 0.0000000000, 0.0273437500, 0.0000000000, 0.0546875000, 0.0019531250, 0.0000000000, 0.0039062500, 0.0000000000, 0.0000000000, 0.0000000000, 0.0000000000, 0.0000000000, 0.0000000000, 0.0000000000, 0.0000000000, 0.0136718750, 0.0000000000, 0.0000000000, 0.0371093750, 0.0136718750, 0.0136718750, -0.0097656250, -0.0019531250, 0.0000000000, -0.0058593750, 0.0585937500, 0.0117187500, -0.0078125000, -0.0078125000, 0.0000000000, 0.0117187500, 0.0039062500, 0.0195312500, 0.0019531250, 0.0000000000, 0.0000000000, 0.0000000000, 0.0000000000, 0.0000000000, 0.0000000000, 0.0000000000, 0.0000000000, 0.0097656250, 0.0000000000, 0.0019531250, 0.0000000000, 0.0000000000, -0.0078125000, -0.0156250000, -0.0585937500, -0.0175781250, 0.0000000000, 0.0000000000, -0.0078125000, 0.0000000000, 0.0000000000, -0.0136718750, 0.0000000000, -0.0019531250, -0.0664062500, 0.0039062500, 0.0078125000, -0.0449218750, 0.0000000000, 0.0000000000, 0.0000000000, 0.0000000000, 0.0000000000, 0.0000000000, 0.0000000000, 0.0000000000, 0.0000000000, 0.0019531250, 0.0039062500, -0.0058593750, -0.0156250000, -0.0097656250, -0.0019531250, 0.0000000000, 0.0000000000, 0.0000000000, 0.0000000000, -0.0722656250, -0.0019531250, -0.0019531250, 0.0097656250, -0.0078125000, -0.0039062500, -0.0468750000, 0.0097656250, -0.0039062500, -0.0078125000, -0.0019531250, 0.0000000000, 0.0039062500, 0.0000000000, 0.0000000000, 0.0000000000, 0.0000000000, 0.0429687500, 0.0000000000, 0.0000000000, -0.0351562500, -0.0019531250, 0.0000000000, 0.0000000000, 0.0000000000, 0.0000000000, -0.0156250000, 0.0000000000, 0.0000000000, 0.0000000000, -0.0332031250, -0.0078125000, 0.0449218750, 0.0000000000, -0.1035156250, 0.0117187500, 0.0156250000, 0.0000000000, 0.0000000000, 0.0000000000, 0.0000000000, 0.0000000000, 0.0000000000, 0.0000000000, 0.0000000000, 0.0058593750, 0.0156250000, 0.0000000000, 0.0000000000, -0.0058593750, 0.0000000000, 0.0000000000, 0.0000000000, -0.0488281250, -0.0332031250, 0.0000000000, 0.0000000000, 0.0000000000, -0.0039062500, 0.0000000000, 0.0000000000, -0.0273437500, -0.0761718750, 0.0000000000, 0.0000000000, 0.0000000000, 0.0000000000, 0.0000000000, 0.0000000000, 0.0000000000, 0.0000000000, 0.0000000000, 0.0000000000, 0.0019531250, 0.0000000000, 0.0000000000, 0.0000000000, 0.0000000000, 0.0000000000, -0.0214843750, 0.0000000000, 0.0000000000, 0.0000000000, -0.0527343750, -0.0449218750, 0.0000000000, 0.0000000000, 0.0000000000, 0.0371093750, 0.0097656250, 0.0000000000, -0.0566406250, 0.0410156250, -0.0117187500, 0.0000000000, 0.0000000000, 0.0000000000, 0.0000000000, 0.0000000000, 0.0019531250, 0.0000000000, 0.0156250000, -0.0058593750, -0.0097656250, 0.0000000000, -0.0058593750, 0.0000000000, -0.1093750000, -0.0097656250, 0.0000000000, 0.0117187500, 0.0000000000, -0.0234375000, -0.0371093750, 0.0019531250, 0.0000000000, -0.0019531250, 0.0019531250, -0.0937500000, -0.0078125000, 0.0000000000, -0.0097656250, 0.0000000000, 0.0000000000, 0.0000000000, 0.0000000000, 0.0000000000, 0.0000000000, 0.0000000000, 0.0546875000, 0.0000000000, 0.0019531250, 0.0156250000, -0.0058593750, 0.0000000000, 0.0000000000, 0.0625000000, 0.0000000000, 0.0253906250, 0.0000000000, 0.0000000000, 0.0000000000, 0.0000000000, 0.0000000000, 0.0000000000, 0.0000000000, 0.0000000000, 0.0000000000, 0.0000000000, 0.0019531250, 0.0000000000, 0.0000000000, 0.0000000000, 0.0000000000, -0.0058593750, 0.0000000000, 0.0000000000, 0.0078125000, 0.0078125000, 0.0058593750, 0.0292968750, 0.0527343750, 0.0371093750, 0.0000000000, 0.0000000000, -0.0742187500, 0.0000000000, 0.0000000000, 0.0000000000, -0.0019531250, -0.0058593750, 0.0039062500, 0.1093750000, 0.0488281250, 0.0019531250, 0.0000000000, -0.0058593750, -0.0156250000, 0.0000000000, 0.0000000000, 0.0000000000, -0.0136718750, 0.0000000000, 0.0000000000, 0.0195312500, 0.0546875000, 0.0000000000, 0.0000000000, 0.0800781250, 0.0292968750, 0.0058593750, 0.0000000000, -0.0019531250, -0.0097656250, 0.0000000000, 0.0859375000, 0.0019531250, 0.0000000000, -0.0039062500, 0.0292968750, 0.0644531250, 0.0644531250, 0.0019531250, 0.0000000000, 0.0019531250, -0.0019531250, 0.0000000000, 0.0000000000, 0.0000000000, 0.0000000000, 0.0000000000, 0.0000000000, 0.0175781250, 0.0546875000, -0.0332031250, 0.0000000000, 0.0214843750, 0.0000000000, -0.0058593750, 0.0234375000, 0.0000000000, 0.0000000000, 0.0585937500, 0.0000000000, 0.0117187500, -0.0117187500, -0.0175781250, 0.0019531250, 0.0000000000, 0.0000000000, 0.0214843750, -0.0078125000, 0.0000000000, -0.0097656250, 0.0000000000, 0.0019531250, 0.0000000000, -0.0253906250, 0.0000000000, -0.0019531250, 0.0000000000, 0.0000000000, -0.0292968750, 0.0000000000, 0.0058593750, 0.0000000000, 0.0253906250, 0.0000000000, 0.0175781250, 0.0019531250, 0.0000000000, 0.0605468750, 0.0078125000, 0.0000000000, 0.0000000000, 0.0000000000, 0.0000000000, 0.0000000000, 0.0429687500, 0.0000000000, 0.0000000000, -0.0156250000, 0.0000000000, 0.0000000000, 0.0000000000, 0.0000000000, 0.0039062500, 0.0000000000, 0.0078125000, 0.0000000000, -0.0820312500, 0.0000000000, 0.0000000000, 0.0000000000, 0.0000000000, -0.0058593750, -0.0527343750, 0.0097656250, -0.0175781250, 0.0585937500, 0.0000000000, 0.0000000000, 0.0000000000, 0.0000000000, -0.0019531250, -0.0039062500, 0.0117187500, -0.0058593750, 0.0000000000, -0.0019531250, 0.0000000000, 0.0000000000, 0.0000000000, 0.0000000000, 0.0039062500, 0.0859375000, 0.0000000000, 0.0000000000, 0.0000000000, 0.0000000000, 0.0000000000, 0.0859375000, 0.0000000000, 0.0000000000, 0.0195312500, 0.0019531250, -0.0136718750, 0.0000000000, -0.0292968750, 0.0000000000, 0.0000000000, 0.0000000000, 0.0000000000, 0.0136718750, 0.0156250000, -0.0058593750, -0.0019531250, 0.0000000000, 0.0000000000, 0.0000000000, 0.0000000000, 0.0000000000, 0.0000000000, 0.0097656250, 0.0000000000, 0.0000000000, 0.0000000000, 0.0000000000, 0.0000000000, 0.0097656250, 0.0000000000, 0.0000000000, 0.0000000000, 0.0000000000, -0.0058593750, 0.0234375000, 0.0000000000, -0.0019531250, -0.0253906250, 0.0000000000, -0.0078125000, -0.0078125000, 0.0078125000, 0.0000000000, -0.0019531250, 0.0000000000, 0.0000000000, 0.0000000000, 0.0000000000, 0.0000000000, 0.0195312500, 0.0000000000, 0.0000000000, 0.0000000000, 0.0000000000, 0.0000000000, 0.0019531250, 0.0000000000, -0.0039062500, 0.0000000000, -0.0156250000, 0.0000000000, -0.0019531250, 0.0000000000, 0.0390625000, -0.0019531250, 0.0000000000, 0.0000000000, -0.0097656250, -0.0039062500, 0.0039062500, 0.0039062500, -0.0019531250, -0.0058593750, -0.0195312500, 0.0000000000, 0.0000000000, 0.0000000000, 0.0000000000, 0.0000000000, -0.0019531250, 0.0000000000, 0.0000000000, 0.0000000000, 0.0000000000, 0.0000000000, 0.0000000000, -0.0117187500, 0.0000000000, -0.0585937500, -0.0097656250, -0.0097656250, 0.0000000000, 0.0000000000, 0.0117187500, 0.0000000000, -0.0136718750, -0.0097656250, 0.0039062500, 0.0000000000, 0.0000000000, 0.0000000000, -0.0683593750, 0.0000000000, 0.0000000000, 0.0468750000, 0.0000000000, 0.0000000000, 0.0000000000, 0.0000000000, 0.0019531250, -0.0039062500, 0.0195312500, 0.0000000000, -0.0019531250, -0.0878906250, 0.0000000000, -0.0390625000, -0.0175781250, 0.0000000000, 0.0000000000, 0.0000000000, 0.0000000000, -0.0097656250, -0.0078125000, -0.0078125000, 0.0058593750, 0.0039062500, -0.0039062500, -0.0273437500, -0.0507812500, 0.0000000000, 0.0527343750, 0.0175781250, 0.0000000000, 0.0195312500, 0.0000000000, 0.0000000000, 0.0019531250, 0.0000000000, 0.0214843750, 0.0019531250, 0.0000000000, 0.0000000000, 0.0000000000, 0.0019531250, 0.0000000000, 0.0000000000, 0.0273437500, 0.0058593750, 0.0468750000, 0.0000000000, 0.0000000000, -0.0664062500, 0.0234375000, 0.0039062500, 0.0000000000, -0.0019531250, 0.0000000000, 0.0214843750, 0.0000000000, 0.0000000000, 0.0000000000, 0.0214843750, 0.0000000000, 0.0000000000, 0.0000000000, 0.0000000000, -0.0195312500, 0.0000000000, 0.0097656250, 0.0234375000, 0.0000000000, 0.0117187500, 0.0000000000, 0.0234375000, 0.0097656250, 0.0117187500, 0.0097656250, 0.0000000000, 0.0097656250, 0.0000000000, 0.0000000000, -0.0449218750, -0.0058593750, 0.0000000000, 0.0000000000, 0.0000000000, 0.0000000000, 0.0117187500, 0.0000000000, 0.0000000000, 0.0000000000, 0.0000000000, -0.0312500000, -0.0058593750, 0.0058593750, 0.0019531250, 0.0000000000, 0.0000000000, 0.0000000000, 0.0078125000, 0.0000000000, 0.0390625000, 0.0019531250, 0.0000000000, -0.0664062500, -0.0019531250, 0.0039062500, -0.1132812500, -0.0449218750, 0.0000000000, -0.0156250000, 0.0000000000, 0.0000000000, 0.0000000000, 0.0000000000, 0.0000000000, 0.0000000000, 0.0000000000, 0.0332031250, 0.0195312500, 0.0000000000, -0.0039062500, -0.0937500000, -0.0820312500, 0.0000000000, -0.0097656250, 0.0000000000, 0.0000000000, 0.0000000000, 0.0000000000, -0.0214843750, -0.0039062500, -0.0214843750, -0.0136718750, 0.0000000000, 0.0000000000, -0.0253906250, -0.0546875000, -0.0761718750, -0.0019531250, 0.0000000000, 0.0000000000, -0.0097656250, 0.0253906250, 0.0000000000, 0.0019531250, 0.0058593750, 0.0449218750, 0.0000000000, 0.0000000000, -0.0273437500, -0.0683593750, 0.0039062500, 0.0000000000, 0.0000000000, 0.0000000000, 0.0000000000, 0.0000000000, 0.0000000000, 0.0000000000, 0.0000000000, 0.0000000000, 0.0019531250, 0.0019531250, 0.0000000000, 0.0000000000, 0.0000000000, -0.0097656250, 0.0117187500, 0.0000000000, 0.0019531250, 0.0000000000, -0.0019531250, -0.0273437500, 0.0253906250, 0.0351562500, 0.0273437500, 0.0000000000, -0.1875000000, -0.0722656250, -0.0742187500, 0.0019531250, -0.0039062500, -0.0117187500, 0.0000000000, 0.0000000000, -0.0156250000, 0.0000000000, -0.0058593750, 0.0000000000, -0.0546875000, -0.0253906250, -0.0429687500, 0.0000000000, -0.0156250000, 0.0000000000, -0.0136718750, 0.0000000000, 0.0000000000, 0.0000000000, 0.0000000000, 0.0000000000, 0.0429687500, 0.0000000000, 0.0000000000, 0.0000000000, 0.0000000000, 0.0000000000, 0.0000000000, 0.0000000000, 0.0000000000, 0.0000000000, 0.0000000000, 0.0000000000, 0.0000000000, 0.0000000000, 0.0000000000, 0.0000000000, 0.0000000000, 0.0000000000, 0.0000000000, 0.0000000000, 0.0000000000, 0.0000000000, 0.0000000000, 0.0000000000, 0.0000000000, 0.0000000000, 0.0000000000, 0.0000000000, 0.0000000000, 0.0000000000, 0.0000000000, -0.0097656250, 0.0000000000, 0.0214843750, 0.0000000000, 0.0000000000, -0.0800781250, 0.0000000000, 0.0000000000, 0.0000000000, 0.0000000000, 0.0000000000, -0.0449218750, 0.0000000000, 0.0214843750, 0.0000000000, 0.0000000000, 0.0000000000, 0.0000000000, 0.0000000000, 0.0000000000, 0.0000000000, 0.0000000000, 0.0000000000, 0.0000000000, 0.0000000000, 0.0000000000, 0.0000000000, 0.0000000000, 0.0625000000, 0.0214843750, 0.0000000000, 0.0000000000, 0.0000000000, 0.0000000000, 0.0000000000, -0.0410156250, -0.0878906250, -0.0078125000, 0.0000000000, 0.0000000000, 0.0000000000, 0.0019531250, 0.0000000000, 0.0000000000, 0.0000000000, 0.0000000000, 0.0000000000, 0.0000000000, 0.0000000000, 0.0000000000, 0.0000000000, 0.0000000000, 0.0000000000, 0.0000000000, 0.0000000000, 0.0000000000, 0.0000000000, 0.0000000000, 0.0000000000, 0.0000000000, 0.0000000000, 0.0000000000, 0.0000000000, 0.0000000000, 0.0000000000, 0.0000000000, 0.0000000000, 0.0000000000, 0.0000000000, 0.0000000000, 0.0000000000, 0.0000000000, 0.0000000000, 0.0000000000, 0.0000000000, 0.0000000000, 0.0000000000, 0.0000000000, 0.0000000000, 0.0000000000, 0.0000000000, 0.0000000000, 0.0000000000, 0.0000000000, 0.0000000000, 0.0000000000, 0.0000000000, 0.0000000000, 0.0000000000, 0.0000000000, 0.0000000000, 0.0000000000, 0.0000000000, 0.0000000000, 0.0000000000, 0.0000000000, 0.0000000000, 0.0000000000, 0.0000000000, 0.0000000000, 0.0000000000, 0.0000000000, 0.0000000000, 0.0000000000, 0.0000000000, 0.0000000000, 0.0000000000, 0.0000000000, 0.0000000000, 0.0000000000, 0.0000000000, 0.0000000000, 0.0000000000, 0.0000000000, 0.0000000000, 0.0000000000, 0.0000000000, 0.0000000000, 0.0000000000, 0.0000000000, -0.0722656250, 0.0000000000, 0.0000000000, 0.0000000000, 0.0000000000, 0.0000000000, 0.0000000000, 0.0000000000, 0.0000000000, 0.0000000000, 0.0000000000, 0.0000000000, 0.0000000000, 0.0000000000, 0.0000000000, 0.0000000000, 0.0000000000, 0.0000000000, -0.0078125000, 0.0000000000, 0.0000000000, 0.0000000000, 0.0214843750, 0.0000000000, 0.0000000000, 0.0000000000, 0.0000000000, 0.0000000000, 0.0000000000, 0.0000000000, 0.0000000000, 0.0000000000, 0.0000000000, 0.0000000000, 0.0000000000, 0.0000000000, 0.0000000000, 0.0000000000, 0.0000000000, 0.0000000000, 0.0000000000, 0.0000000000, 0.0000000000, 0.0000000000, 0.0000000000, 0.0000000000, 0.0000000000, 0.0000000000, 0.0000000000, 0.0000000000, 0.0507812500, 0.0000000000, 0.0000000000, 0.0000000000, 0.0000000000, 0.0000000000, 0.0000000000, 0.0000000000, 0.0000000000, 0.0000000000, 0.0000000000, 0.0000000000, 0.0000000000, 0.0000000000, 0.0000000000, 0.0000000000, 0.0000000000, 0.0000000000, 0.0000000000, 0.0000000000, 0.0000000000, 0.0000000000, 0.0000000000, 0.0000000000, 0.0000000000, 0.0000000000, 0.0000000000, 0.0000000000, 0.0136718750, 0.0000000000, 0.0000000000, 0.0000000000, 0.0000000000, 0.0000000000, 0.0000000000, 0.0000000000, 0.0000000000, 0.0000000000, 0.0000000000, 0.0000000000, 0.0000000000, 0.0000000000, 0.0000000000, 0.0000000000, -0.0058593750, 0.0000000000, 0.0000000000, 0.0000000000, 0.0000000000, 0.0000000000, 0.0000000000, 0.0000000000, 0.0000000000, 0.0000000000, 0.0000000000, 0.0000000000, 0.0937500000, 0.0000000000, 0.0000000000, 0.0000000000, 0.0000000000, 0.0000000000, 0.0000000000, 0.0000000000, 0.0000000000, 0.0000000000, 0.0000000000, 0.0000000000, 0.0000000000, 0.0000000000, 0.0000000000, 0.0000000000, 0.0000000000, 0.0000000000, 0.0000000000, 0.0000000000, 0.0000000000, 0.0000000000, 0.0000000000, 0.0000000000, -0.0058593750, 0.0000000000, 0.0000000000, 0.0742187500, 0.0000000000, 0.0000000000, 0.0000000000, 0.0000000000, 0.0000000000, 0.0000000000, 0.0000000000, 0.0000000000, 0.0000000000, 0.0000000000, 0.0000000000, 0.0292968750, 0.0000000000, 0.0000000000, 0.0000000000, 0.0000000000, 0.0000000000, 0.0000000000, -0.0332031250, 0.0000000000, 0.0000000000, 0.0000000000, 0.0000000000, 0.0000000000, -0.0097656250, 0.0000000000, -0.0019531250, 0.0097656250, 0.0117187500, 0.0000000000, 0.0000000000, 0.0000000000, 0.0000000000, 0.0000000000, 0.0000000000, 0.0000000000, 0.0000000000, 0.0000000000, 0.0000000000, 0.0000000000, 0.0000000000, 0.0000000000, 0.0000000000, -0.0058593750, -0.0078125000, 0.0000000000, -0.0390625000, 0.0000000000, 0.0000000000, 0.0000000000, 0.0000000000, 0.0000000000, 0.0000000000, 0.0000000000, 0.0000000000, 0.0000000000, 0.0332031250, 0.0000000000, 0.0000000000, 0.0000000000, 0.0000000000, -0.0039062500, 0.0000000000, 0.0000000000, 0.0000000000, -0.0019531250, -0.0273437500, 0.0000000000, 0.0000000000, 0.0000000000, 0.0000000000, -0.0273437500, 0.0000000000, 0.0000000000, -0.0585937500, 0.0000000000, 0.0000000000, 0.0000000000, 0.0000000000, 0.0000000000, 0.0000000000, 0.0000000000, 0.0000000000, 0.0000000000, 0.0019531250, 0.0000000000, -0.0175781250, 0.0000000000, 0.0000000000, 0.0000000000, -0.0078125000, 0.0000000000, 0.0000000000, 0.0000000000, 0.0000000000, 0.0000000000, 0.0000000000, 0.0000000000, 0.0000000000, -0.0019531250, 0.0000000000, 0.0000000000, 0.0000000000, 0.0000000000, 0.0000000000, 0.0000000000, 0.0000000000, 0.0000000000, 0.0000000000, 0.0000000000, 0.0000000000, 0.0000000000, 0.0117187500, 0.0000000000, -0.0039062500, 0.0000000000, -0.0742187500, 0.0000000000, 0.0000000000, -0.0058593750, -0.0078125000, 0.0000000000, 0.0000000000, 0.0000000000, 0.0000000000, 0.0000000000, 0.0000000000, -0.0078125000, 0.0000000000, 0.0000000000, 0.0000000000, 0.0000000000, 0.0000000000, 0.0000000000, 0.0000000000, 0.0000000000, 0.0000000000, 0.0000000000, 0.0000000000, 0.0000000000, 0.0039062500, 0.0000000000, 0.0000000000, 0.0000000000, 0.0000000000, 0.0000000000, 0.0000000000, 0.0000000000, 0.0000000000, 0.0000000000, 0.0000000000, 0.0000000000, 0.0000000000, 0.0000000000, -0.0292968750, -0.0039062500, 0.0000000000, 0.0000000000, 0.0000000000, 0.0000000000, 0.0000000000, -0.0078125000, 0.0000000000, 0.0000000000, 0.0000000000, 0.0000000000, 0.0000000000, 0.0000000000, 0.0039062500, 0.0000000000, 0.0000000000, 0.0000000000, 0.0000000000, 0.0000000000, -0.0507812500, -0.0058593750, -0.0136718750, 0.0000000000, 0.0000000000, -0.0175781250, 0.0000000000, 0.0000000000, -0.0371093750, 0.0000000000, 0.0000000000, 0.0000000000, -0.0136718750, 0.0000000000, 0.0000000000, -0.0527343750, 0.0000000000, 0.0000000000, 0.0000000000, 0.0000000000, -0.0019531250, 0.0000000000, 0.0000000000, 0.0000000000, 0.0000000000, -0.0136718750, 0.0000000000, -0.0039062500, -0.0175781250, -0.0546875000, -0.0507812500, -0.0136718750, 0.0000000000, -0.0175781250, 0.0000000000, 0.0000000000, 0.0000000000, 0.0000000000, 0.0000000000, 0.0000000000, -0.0097656250, 0.0000000000, 0.0000000000, 0.0000000000, -0.0390625000, 0.0000000000, 0.0000000000, 0.0000000000, -0.0019531250, 0.0000000000, 0.0000000000, 0.0000000000, 0.0000000000, 0.0000000000, 0.0000000000, 0.0000000000, 0.0000000000, -0.0019531250, 0.0000000000, -0.0390625000, 0.0000000000, -0.0039062500, 0.0000000000, 0.0000000000, 0.0000000000, 0.0000000000, 0.0000000000, 0.0000000000, 0.0000000000, 0.0000000000, 0.0000000000, 0.0000000000, 0.0000000000, 0.0000000000, 0.0000000000, 0.0000000000, 0.0000000000, 0.0000000000, 0.0000000000, -0.0546875000, 0.0000000000, 0.0000000000, 0.0000000000, 0.0000000000, 0.0000000000, -0.0273437500, 0.0000000000, 0.0000000000, 0.0000000000, 0.0000000000, 0.0000000000, 0.0000000000, 0.0000000000, 0.0000000000, 0.0000000000, 0.0000000000, -0.0410156250, -0.0156250000, 0.0000000000, 0.0000000000, 0.0000000000, 0.0000000000, 0.0000000000, 0.0000000000, 0.0000000000, 0.0000000000, 0.0000000000, 0.0000000000, 0.0000000000, 0.0000000000, 0.0000000000, -0.0019531250, 0.0000000000, 0.0000000000, 0.0000000000, 0.0000000000, 0.0000000000, 0.0000000000, 0.0000000000, 0.0000000000, 0.0000000000, 0.0000000000, 0.0000000000, 0.0000000000, 0.0000000000, 0.0000000000, 0.0000000000, 0.0000000000, 0.0000000000, 0.0000000000, 0.0000000000, 0.0000000000, 0.0000000000, 0.0000000000, 0.0000000000, 0.0000000000, 0.0000000000, 0.0000000000, 0.0000000000, 0.0000000000, 0.0000000000, 0.0000000000, 0.0000000000, 0.0000000000, 0.0000000000, 0.0000000000, 0.0000000000, 0.0000000000, 0.0000000000, 0.0000000000, 0.0000000000, 0.0000000000, 0.0000000000, 0.0000000000, 0.0000000000, 0.0000000000, 0.0000000000, 0.0000000000, 0.0000000000, 0.0000000000, 0.0000000000, 0.0000000000, 0.0000000000, 0.0000000000, 0.0000000000, 0.0000000000, 0.0000000000, 0.0000000000, 0.0000000000, 0.0000000000, 0.0000000000, 0.0000000000, 0.0000000000, 0.0000000000, 0.0000000000, 0.0000000000, -0.0019531250, 0.0000000000, -0.0019531250, 0.0000000000, 0.0000000000, 0.0000000000, 0.0000000000, 0.0000000000, 0.0000000000, 0.0000000000, 0.0000000000, 0.0000000000, 0.0000000000, 0.0000000000, 0.0000000000, 0.0000000000, 0.0000000000, 0.0000000000, 0.0000000000, 0.0000000000, 0.0000000000, 0.0000000000, 0.0000000000, 0.0000000000, 0.0000000000, 0.0000000000, 0.0000000000, 0.0000000000, 0.0000000000, 0.0000000000, -0.0019531250, 0.0000000000, 0.0000000000, 0.0000000000, 0.0000000000, 0.0000000000, 0.0000000000, 0.0000000000, 0.0000000000, 0.0000000000, 0.0000000000, 0.0000000000, 0.0000000000, 0.0000000000, 0.0019531250, 0.0019531250, 0.0019531250, 0.0000000000, 0.0000000000, 0.0000000000, 0.0019531250, 0.0175781250, 0.0039062500, 0.0019531250, 0.0000000000, 0.0000000000, 0.0000000000, 0.0000000000, -0.0117187500, 0.0000000000, 0.0000000000, 0.0000000000, 0.0019531250, 0.0000000000, 0.0000000000, 0.0000000000, 0.0000000000, 0.0000000000, 0.0000000000, -0.0039062500, 0.0000000000, 0.0000000000, 0.0000000000, 0.0000000000, 0.0000000000, 0.0000000000, 0.0000000000, 0.0000000000, 0.0000000000, 0.0000000000, 0.0000000000, 0.0000000000, 0.0000000000, -0.0136718750, -0.0019531250, 0.0000000000, 0.0000000000, 0.0000000000, 0.0000000000, 0.0000000000, 0.0000000000, 0.0000000000, 0.0000000000, 0.0000000000, 0.0000000000, 0.0000000000, 0.0000000000, 0.0000000000, 0.0000000000, 0.0000000000, 0.0000000000, 0.0000000000, 0.0000000000, 0.0000000000, 0.0000000000, 0.0000000000, 0.0000000000, 0.0097656250, 0.0234375000, 0.0000000000, 0.0000000000, -0.0078125000, 0.0000000000, 0.0000000000, 0.0000000000, 0.0000000000, 0.0000000000, 0.0039062500, 0.0000000000, 0.0000000000, 0.0000000000, 0.0000000000, 0.0078125000, 0.0136718750, 0.0000000000, 0.0000000000, 0.0000000000, 0.0000000000, 0.0000000000, 0.0000000000, 0.0000000000, 0.0351562500, 0.1445312500, 0.0000000000, 0.0058593750, 0.0000000000, 0.0000000000, 0.0000000000, 0.0000000000, 0.0000000000, 0.0000000000, 0.0000000000, 0.0000000000, 0.0000000000, 0.0000000000, 0.0000000000, 0.0000000000, 0.0000000000, 0.0000000000, 0.0000000000, 0.0000000000, 0.0000000000, 0.0000000000, 0.0000000000, 0.0000000000, 0.0000000000, 0.0234375000, 0.0000000000, 0.0000000000, -0.0546875000, -0.0605468750, -0.0703125000, 0.0000000000, 0.0078125000, 0.0000000000, 0.0000000000, 0.0000000000, 0.0136718750, 0.0000000000, 0.0000000000, 0.0000000000, 0.0000000000, 0.0000000000, 0.0000000000, 0.0000000000, 0.0000000000, 0.0000000000, 0.0000000000, 0.0000000000, -0.0097656250, 0.0000000000, 0.0000000000, 0.0000000000, 0.0039062500, 0.0000000000, 0.0000000000, 0.0000000000, 0.0000000000, 0.0000000000, -0.0234375000, -0.0058593750, 0.0000000000, 0.0195312500, 0.0000000000, 0.0000000000, 0.0000000000, 0.0000000000, 0.0000000000, 0.0000000000, 0.0000000000, 0.0000000000, 0.0000000000, 0.0000000000, 0.0000000000, 0.0000000000, 0.0000000000, -0.0039062500, 0.0000000000, 0.0000000000, 0.0000000000, 0.0000000000, 0.0390625000, 0.0000000000, 0.0000000000, -0.0585937500, -0.0605468750, 0.0000000000, 0.0000000000, -0.0625000000, 0.0000000000, 0.0000000000, 0.0000000000, 0.0000000000, -0.0351562500, -0.0585937500, 0.0000000000, 0.0000000000, 0.0000000000, 0.0000000000, 0.0000000000, 0.0000000000, 0.0000000000, 0.0000000000, 0.0000000000, 0.0000000000, 0.0000000000, 0.0000000000, 0.0000000000, 0.0195312500, 0.0000000000, 0.0000000000, 0.0000000000, 0.0000000000, -0.0351562500, -0.0488281250, 0.0000000000, 0.0000000000, 0.0000000000, 0.0000000000, 0.0000000000, 0.0000000000, 0.0000000000, 0.0000000000, -0.0332031250, 0.0000000000, 0.0000000000, 0.0000000000, 0.0039062500, -0.0097656250, 0.0000000000, 0.0000000000, -0.0351562500, 0.0000000000, 0.0000000000, 0.0019531250, 0.0000000000, 0.0117187500, 0.0000000000, 0.0000000000, 0.0000000000, -0.0292968750, 0.0000000000, 0.0000000000, 0.0000000000, -0.0019531250, -0.0078125000, 0.0000000000, 0.0000000000, 0.0000000000, 0.0000000000, 0.0000000000, 0.0000000000, 0.0000000000, 0.0000000000, 0.0000000000, 0.0058593750, 0.0000000000, 0.0000000000, -0.0156250000, 0.0000000000, 0.0000000000, 0.0000000000, 0.0058593750, 0.0000000000, 0.0000000000, 0.0000000000, 0.0000000000, 0.0000000000, 0.0000000000, 0.0000000000, -0.0117187500, 0.0000000000, 0.0000000000, 0.0000000000, 0.0332031250, 0.0000000000, 0.0000000000, 0.0019531250, 0.0000000000, 0.0000000000, 0.0000000000, 0.0000000000, 0.0000000000, 0.0000000000, 0.0000000000, 0.0000000000, 0.0000000000, 0.0000000000, 0.0000000000, 0.0000000000, 0.0058593750, 0.0000000000, 0.0000000000, 0.0000000000, 0.0000000000, 0.0000000000, 0.0000000000, 0.0000000000, -0.0507812500, -0.0039062500, 0.0000000000, 0.0527343750, 0.0546875000, 0.0527343750, 0.0000000000, 0.0000000000, 0.0019531250, -0.0664062500, -0.0371093750, -0.0273437500, -0.0097656250, -0.0175781250, 0.0000000000, 0.0000000000, 0.0000000000, 0.0000000000, 0.0000000000, 0.0000000000, 0.0078125000, 0.0000000000, 0.0000000000, 0.0000000000, 0.0000000000, 0.0000000000, 0.0000000000, 0.0000000000, -0.0937500000, 0.0000000000, 0.0000000000, 0.0156250000, 0.0332031250, 0.1250000000, 0.0000000000, 0.0000000000, 0.0058593750, -0.0234375000, 0.0000000000, -0.0742187500, -0.0332031250, -0.0019531250, 0.0000000000, 0.0000000000, 0.0000000000, 0.0019531250, 0.0000000000, 0.0000000000, 0.0078125000, 0.0000000000, 0.0000000000, -0.0097656250, 0.0000000000, -0.0019531250, -0.0234375000, 0.0000000000, -0.0292968750, -0.0292968750, 0.0000000000, 0.0000000000, 0.0000000000, -0.0078125000, -0.0214843750, -0.0468750000, 0.0039062500, -0.0546875000, 0.0058593750, 0.0000000000, -0.0292968750, 0.0000000000, 0.0000000000, 0.0000000000, 0.0000000000, 0.0000000000, 0.0000000000, 0.0058593750, 0.0058593750, 0.0000000000, 0.0000000000, 0.0000000000, -0.0273437500, 0.0000000000, 0.0000000000, 0.0000000000, -0.0859375000, 0.0000000000, 0.0722656250, 0.0312500000, 0.0000000000, 0.0000000000, 0.0000000000, -0.0566406250, 0.0078125000, 0.0058593750, 0.0000000000, -0.0781250000, -0.0214843750, 0.0097656250, 0.0000000000, 0.0000000000, 0.0000000000, 0.0019531250, 0.0000000000, 0.0019531250, 0.0000000000, 0.0000000000, 0.0000000000, -0.0859375000, -0.0175781250, 0.0000000000, 0.0000000000, -0.0058593750, 0.0000000000, 0.0000000000, -0.0078125000, 0.0527343750, -0.0019531250, -0.0312500000, 0.0000000000, -0.0156250000, 0.0039062500, 0.0585937500, -0.0097656250, -0.0097656250, -0.0761718750, -0.0039062500, 0.0000000000, 0.0000000000, 0.0019531250, 0.0156250000, 0.0000000000, 0.0000000000, 0.0000000000, 0.0000000000, -0.0039062500, 0.0000000000, 0.1015625000, 0.0117187500, 0.0683593750, 0.0000000000, 0.0000000000, -0.0058593750, 0.0000000000, 0.0078125000, 0.0039062500, 0.0000000000, 0.0000000000, 0.0000000000, 0.0039062500, 0.0000000000, 0.0000000000, 0.0000000000, -0.0019531250, 0.0000000000, 0.0000000000, 0.0000000000, 0.0234375000, 0.0019531250, 0.0703125000, 0.0000000000, 0.0000000000, 0.0000000000, 0.0000000000, 0.0000000000, 0.0078125000, 0.0019531250, -0.0214843750, -0.0039062500, 0.0000000000, 0.0000000000, 0.0253906250, 0.0253906250, -0.0019531250, 0.0000000000, 0.0000000000, -0.0195312500, 0.0000000000, 0.0000000000, 0.0000000000, 0.0097656250, 0.0000000000, -0.0117187500, 0.0000000000, 0.0000000000, 0.0410156250, 0.0000000000, 0.0468750000, 0.0000000000, 0.0039062500, 0.0214843750, 0.0000000000, 0.0019531250, 0.0312500000, -0.0097656250, -0.0097656250, 0.0000000000, 0.0000000000, 0.0000000000, 0.0214843750, 0.0039062500, 0.0175781250, 0.0078125000, 0.0234375000, 0.0000000000, -0.0468750000, 0.0000000000, 0.0136718750, 0.0175781250, 0.0000000000, -0.0253906250, 0.0000000000, 0.0000000000, 0.0000000000, 0.0000000000, 0.0000000000, -0.0546875000, 0.0000000000, 0.0019531250, 0.0703125000, 0.0195312500, 0.0000000000, -0.0136718750, -0.0019531250, 0.0000000000, 0.0078125000, 0.0019531250, 0.0058593750, 0.0000000000, 0.0000000000, 0.0019531250, 0.0000000000, 0.0000000000, -0.0039062500, 0.0000000000, 0.0722656250, 0.0449218750, 0.0097656250, -0.0488281250, -0.0097656250, -0.0097656250, 0.0058593750, 0.0000000000, 0.0000000000, -0.0703125000, 0.0000000000, 0.0000000000, 0.0253906250, 0.0000000000, 0.0000000000, -0.0039062500, 0.0000000000, 0.0000000000, 0.0000000000, 0.0000000000, 0.0000000000, -0.0058593750, 0.0000000000, 0.0000000000, 0.0292968750, 0.0039062500, 0.0156250000, 0.0000000000, 0.0000000000, 0.0332031250, -0.0117187500, -0.0703125000, 0.0000000000, 0.0019531250, 0.0253906250, 0.0371093750, -0.0312500000, 0.0000000000, 0.0000000000, 0.0000000000, 0.0000000000, -0.0019531250, -0.0039062500, 0.0000000000, 0.0000000000, -0.0117187500, -0.0078125000, -0.0058593750, 0.0000000000, 0.0507812500, 0.0000000000, 0.0000000000, 0.0000000000, 0.0000000000, -0.0058593750, 0.0000000000, -0.0019531250, 0.0000000000, -0.0019531250, 0.0000000000, 0.0000000000, 0.0644531250, 0.0000000000, 0.0000000000, 0.0000000000, -0.0253906250, 0.0000000000, -0.0546875000, 0.0000000000, 0.0000000000, 0.0000000000, 0.0644531250, 0.0000000000, -0.0351562500, -0.0019531250, 0.0000000000, 0.0000000000, 0.0000000000, 0.0000000000, 0.0019531250, 0.0000000000, 0.0000000000, 0.0000000000, 0.0000000000, 0.0000000000, 0.0000000000, -0.0019531250, 0.0000000000, 0.0429687500, 0.0156250000, 0.0000000000, 0.0000000000, 0.0039062500, 0.0058593750, 0.0000000000, -0.0722656250, 0.0000000000, 0.0078125000, 0.0000000000, -0.0039062500, 0.0000000000, -0.0019531250, -0.0234375000, 0.0000000000, -0.0292968750, -0.0136718750, 0.0000000000, 0.0000000000, 0.0000000000, -0.0058593750, 0.0000000000, -0.0039062500, 0.0000000000, 0.0039062500, 0.0000000000, 0.0000000000, 0.0019531250, 0.0156250000, 0.0000000000, 0.0039062500, 0.0078125000, -0.0585937500, 0.0000000000, 0.0000000000, 0.0019531250, 0.0000000000, -0.0058593750, 0.0000000000, 0.0000000000, -0.0078125000, 0.0000000000, 0.0097656250, 0.0000000000, 0.0000000000, 0.0000000000, 0.0000000000, 0.0000000000, 0.0000000000, 0.0039062500, 0.0000000000, 0.0000000000, 0.0000000000, 0.0000000000, 0.0449218750, 0.0488281250, 0.0000000000, 0.0000000000, 0.0000000000, -0.0097656250, -0.0078125000, 0.0000000000, 0.0000000000, 0.0039062500, 0.0000000000, 0.0000000000, -0.0273437500, 0.0000000000, -0.0195312500, 0.0000000000, 0.0039062500, 0.0019531250, 0.0898437500, 0.0859375000, 0.0156250000, 0.0000000000, 0.0000000000, 0.0000000000, 0.0000000000, -0.0019531250, -0.0781250000, -0.0039062500, 0.0214843750, 0.0097656250, -0.0156250000, 0.0000000000, 0.0000000000, 0.0000000000, 0.0000000000, -0.0468750000, 0.0000000000, 0.0039062500, 0.0000000000, 0.0000000000, 0.0000000000, -0.0566406250, 0.0000000000, 0.0000000000, 0.0000000000, 0.0097656250, 0.0000000000, 0.0625000000, 0.0605468750, -0.0039062500, -0.0703125000, 0.0000000000, -0.0136718750, -0.0605468750, -0.1132812500, -0.0117187500, 0.0195312500, 0.0000000000, -0.0039062500, 0.0000000000, -0.0312500000, 0.0000000000, 0.0000000000, -0.0195312500, 0.0000000000, 0.0000000000, 0.0000000000, 0.0000000000, 0.0000000000, 0.0000000000, -0.0039062500, -0.0117187500, 0.0000000000, 0.0097656250, 0.0000000000, 0.0957031250, 0.0117187500, -0.0917968750, -0.0644531250, -0.0332031250, -0.0117187500, -0.0546875000, -0.0195312500, -0.0488281250, 0.0000000000, 0.0000000000, 0.0000000000, 0.0000000000, 0.0000000000, 0.0000000000, 0.0000000000, 0.0000000000, -0.0058593750, 0.0000000000, 0.0000000000, 0.0000000000, 0.0000000000, 0.0000000000, -0.0468750000, -0.0390625000, 0.0000000000, 0.0000000000, 0.0332031250, 0.0000000000, -0.0019531250, -0.0429687500, 0.0000000000, -0.0078125000, -0.0078125000, 0.0000000000, -0.0175781250, -0.0312500000, 0.0000000000, 0.0000000000, 0.0000000000, 0.0000000000, -0.0039062500, 0.0000000000, -0.0117187500, 0.0058593750, 0.0000000000, 0.0019531250, 0.0019531250, 0.0000000000, -0.0117187500, -0.0273437500, -0.0527343750, 0.0000000000, 0.0000000000, 0.0000000000, 0.0000000000, 0.0000000000, 0.0390625000, 0.0000000000, 0.0000000000, 0.0000000000, 0.0000000000, 0.0000000000, 0.0000000000, -0.0117187500, 0.0000000000, 0.0000000000, 0.0000000000, 0.0000000000, 0.0000000000, 0.0000000000, 0.0000000000, 0.0000000000, 0.0000000000, 0.0000000000, 0.0000000000, -0.0390625000, 0.0000000000, 0.0000000000, -0.0449218750, -0.0253906250, 0.0000000000, 0.0000000000, 0.0000000000, 0.0000000000, 0.0000000000, 0.0000000000, 0.0000000000, 0.0000000000, 0.0000000000, -0.0136718750, -0.0273437500, 0.0000000000, 0.0000000000, 0.0000000000, 0.0000000000, 0.0000000000, 0.0000000000, 0.0000000000, 0.0000000000, 0.0000000000, 0.0000000000, 0.0039062500, 0.0019531250, -0.0195312500, 0.0000000000, 0.0000000000, -0.0644531250, 0.0117187500, 0.0000000000, 0.0000000000, 0.0000000000, 0.0000000000, 0.0000000000, 0.0058593750, 0.0136718750, 0.0000000000, -0.0019531250, 0.0000000000, 0.0000000000, 0.0000000000, -0.0078125000, 0.0000000000, 0.0000000000, 0.0000000000, 0.0000000000, -0.0019531250, 0.0000000000, 0.0000000000, 0.0000000000, 0.0000000000, -0.0292968750, -0.0019531250, -0.0507812500, 0.0000000000, -0.0058593750, 0.0000000000, 0.0039062500, 0.0000000000, 0.0000000000, 0.0000000000, 0.0000000000, 0.0000000000, 0.0000000000, -0.0742187500, 0.0000000000, 0.0000000000, 0.0000000000, 0.0000000000, 0.0000000000, 0.0000000000, 0.0000000000, 0.0000000000, 0.0000000000, 0.0000000000, 0.0000000000, 0.0000000000, -0.0253906250, 0.0000000000, 0.0000000000, 0.0000000000, 0.0000000000, 0.0000000000, 0.0000000000, 0.0000000000, 0.0000000000, 0.0000000000, 0.0000000000, 0.0000000000, 0.0000000000, 0.0000000000, 0.0000000000, 0.0000000000, 0.0000000000, 0.0000000000, 0.0000000000, 0.0000000000, 0.0000000000, 0.0000000000, 0.0000000000, 0.0000000000, 0.0000000000, 0.0000000000, 0.0000000000, 0.0000000000, 0.0000000000, 0.0000000000, 0.0000000000, 0.0000000000, 0.0000000000, 0.0000000000, 0.0000000000, -0.0078125000, -0.0097656250, 0.0000000000, 0.0000000000, 0.0000000000, 0.0000000000, 0.0000000000, 0.0000000000, 0.0000000000, 0.0000000000, 0.0000000000, 0.0000000000, 0.0000000000, 0.0000000000, 0.0000000000, 0.0000000000, 0.0000000000, 0.0000000000, -0.0039062500, 0.0000000000, 0.0000000000, 0.0000000000, 0.0000000000, 0.0000000000, 0.0000000000, 0.0000000000, 0.0000000000, 0.0000000000, 0.0000000000, 0.0000000000, 0.0000000000, 0.0000000000, 0.0000000000, 0.0000000000, 0.0000000000, 0.0000000000, 0.0000000000, 0.0000000000, 0.0000000000, 0.0000000000, 0.0000000000, 0.0000000000, 0.0000000000, 0.0000000000, 0.0000000000, 0.0000000000, 0.0000000000, 0.0000000000, 0.0000000000, 0.0000000000, 0.0000000000, 0.0000000000, 0.0000000000, 0.0000000000, -0.0214843750, 0.0000000000, 0.0000000000, 0.0000000000, 0.0000000000, 0.0000000000, 0.0000000000, 0.0000000000, 0.0000000000, 0.0000000000, 0.0000000000, 0.0000000000, 0.0000000000, 0.0000000000, 0.0000000000, 0.0000000000, 0.0000000000, 0.0000000000, 0.0000000000, 0.0000000000, 0.0000000000, 0.0000000000, 0.0000000000, 0.0000000000, 0.0000000000, 0.0000000000, 0.0000000000, 0.0000000000, -0.0449218750, 0.0000000000, 0.0000000000, 0.0000000000, 0.0000000000, 0.0000000000, 0.0000000000, 0.0000000000, 0.0000000000, 0.0000000000, 0.0000000000, 0.0000000000, 0.0000000000, 0.0000000000, 0.0000000000, 0.0000000000, 0.0000000000, 0.0000000000, 0.0000000000, 0.0000000000, 0.0000000000, 0.0000000000, 0.0000000000, 0.0000000000, 0.0000000000, 0.0000000000, 0.0000000000, 0.0000000000, -0.0351562500, 0.0000000000, 0.0000000000, 0.0000000000, 0.0000000000, -0.0117187500, -0.0097656250, 0.0000000000, 0.0000000000, 0.0000000000, 0.0000000000, 0.0000000000, 0.0000000000, 0.0000000000, 0.0000000000, 0.0000000000, 0.0000000000, 0.0000000000, 0.0000000000, 0.0000000000, 0.0000000000, 0.0000000000, 0.0000000000, -0.0019531250, 0.0000000000, 0.0000000000, 0.0000000000, 0.0000000000, 0.0000000000, 0.0000000000, 0.0000000000, -0.0175781250, 0.0000000000, 0.0000000000, 0.0000000000, 0.0000000000, 0.0000000000, 0.0000000000, 0.0000000000, 0.0000000000, 0.0000000000, 0.0000000000, 0.0000000000, 0.0000000000, 0.0000000000, 0.0000000000, 0.0000000000, 0.0000000000, 0.0000000000, 0.0000000000, 0.0000000000, 0.0000000000, 0.0000000000, 0.0000000000, 0.0000000000, 0.0000000000, -0.0429687500, 0.0000000000, 0.0000000000, -0.0097656250, 0.0000000000, 0.0000000000, 0.0000000000, 0.0000000000, 0.0000000000, 0.0000000000, 0.0000000000, 0.0000000000, 0.0000000000, 0.0000000000, 0.0000000000, 0.0000000000, 0.0000000000, 0.0000000000, 0.0000000000, 0.0000000000, 0.0000000000, 0.0000000000, 0.0000000000, 0.0000000000, 0.0000000000, 0.0000000000, 0.0000000000, 0.0000000000, 0.0000000000, 0.0000000000, 0.0000000000, 0.0000000000, -0.0781250000, -0.0449218750, 0.0000000000, 0.0000000000, 0.0000000000, 0.0000000000, 0.0000000000, 0.0000000000, 0.0000000000, 0.0000000000, 0.0000000000, 0.0000000000, 0.0000000000, 0.0000000000, 0.0000000000, 0.0000000000, 0.0000000000, 0.0000000000, 0.0000000000, 0.0000000000, 0.0000000000, 0.0000000000, 0.0000000000, 0.0000000000, 0.0000000000, 0.0000000000, 0.0000000000, 0.0000000000, 0.0000000000, 0.0000000000, 0.0000000000, 0.0000000000, 0.0000000000, 0.0000000000, 0.0000000000, 0.0000000000, 0.0000000000, 0.0000000000, 0.0000000000, 0.0000000000, 0.0000000000, 0.0000000000, 0.0000000000, 0.0000000000, 0.0000000000, 0.0000000000, 0.0000000000, 0.0000000000, 0.0000000000, 0.0000000000, 0.0000000000, 0.0000000000, 0.0000000000, 0.0000000000, 0.0000000000, 0.0000000000, 0.0000000000, 0.0000000000, 0.0000000000, 0.0000000000, 0.0000000000, 0.0000000000, 0.0000000000, 0.0000000000, 0.0000000000, 0.0000000000, 0.0000000000, 0.0000000000, 0.0000000000, 0.0000000000, 0.0000000000, 0.0000000000, 0.0000000000, 0.0000000000, 0.0000000000, 0.0000000000, 0.0000000000, 0.0000000000, 0.0000000000, 0.0000000000, 0.0000000000, -0.0156250000, 0.0000000000, 0.0000000000, 0.0000000000, 0.0000000000, 0.0000000000, 0.0000000000, 0.0000000000, 0.0000000000, 0.0000000000, 0.0000000000, 0.0000000000, 0.0000000000, 0.0000000000, 0.0000000000, 0.0000000000, 0.0000000000, 0.0000000000, 0.0000000000, 0.0000000000, 0.0000000000, 0.0000000000, 0.0000000000, 0.0000000000, 0.0000000000, 0.0000000000, 0.0000000000, 0.0000000000, 0.0000000000, 0.0000000000, -0.0078125000, 0.0000000000, 0.0000000000, 0.0000000000, 0.0000000000, 0.0000000000, 0.0000000000, 0.0000000000, 0.0000000000, 0.0000000000, 0.0000000000, 0.0000000000, 0.0000000000, 0.0000000000, 0.0000000000, 0.0000000000, 0.0000000000, 0.0000000000, 0.0000000000, 0.0000000000, 0.0000000000, 0.0000000000, 0.0000000000, 0.0000000000, 0.0000000000, 0.0000000000, 0.0000000000, 0.0000000000, 0.0000000000, 0.0000000000, 0.0000000000, 0.0000000000, 0.0000000000, 0.0000000000, 0.0000000000, 0.0000000000, 0.0000000000, 0.0000000000, 0.0000000000, 0.0000000000, 0.0000000000, 0.0000000000, 0.0000000000, 0.0000000000, 0.0000000000, 0.0000000000, 0.0000000000, 0.0000000000, 0.0000000000, 0.0000000000, 0.0000000000, 0.0000000000, 0.0000000000, 0.0000000000, 0.0000000000, 0.0000000000, -0.0253906250, 0.0000000000, -0.0234375000, 0.0000000000, 0.0000000000, 0.0000000000, 0.0000000000, 0.0000000000, 0.0000000000, 0.0000000000, 0.0000000000, 0.0000000000, 0.0000000000, 0.0000000000, 0.0000000000, 0.0000000000, 0.0000000000, 0.0000000000, 0.0000000000, 0.0000000000, 0.0000000000, 0.0000000000, 0.0000000000, 0.0000000000, 0.0000000000, 0.0000000000, 0.0000000000, 0.0000000000, 0.0000000000, 0.0000000000, 0.0000000000, 0.0000000000, 0.0000000000, 0.0000000000, 0.0000000000, 0.0000000000, 0.0000000000, 0.0000000000, 0.0000000000, 0.0000000000, 0.0000000000, 0.0000000000, 0.0000000000, 0.0000000000, 0.0000000000, 0.0000000000, 0.0000000000, 0.0000000000, 0.0000000000, 0.0000000000, 0.0000000000, 0.0000000000, 0.0000000000, 0.0000000000, 0.0000000000, 0.0000000000, -0.0468750000, 0.0000000000, 0.0000000000, 0.0000000000, 0.0000000000, 0.0000000000, 0.0000000000, 0.0000000000, 0.0000000000, 0.0000000000, 0.0000000000, 0.0000000000, 0.0000000000, 0.0000000000, 0.0000000000, 0.0000000000, 0.0000000000, 0.0000000000, 0.0000000000, 0.0000000000, 0.0000000000, 0.0000000000, 0.0000000000, 0.0000000000, 0.0000000000, 0.0000000000, 0.0000000000, 0.0000000000, 0.0000000000, 0.0000000000, 0.0000000000, 0.0000000000, 0.0000000000, 0.0000000000, 0.0000000000, 0.0000000000, 0.0000000000, 0.0000000000, 0.0000000000, 0.0000000000, 0.0000000000, 0.0000000000, 0.0000000000, 0.0000000000, 0.0000000000, 0.0000000000, 0.0000000000, 0.0000000000, 0.0000000000, 0.0000000000, 0.0000000000, -0.0175781250, 0.0000000000, 0.0000000000, 0.0000000000, 0.0000000000, 0.0000000000, 0.0000000000, 0.0000000000, 0.0000000000, 0.0000000000, 0.0000000000, 0.0000000000, 0.0000000000, 0.0000000000, 0.0000000000, 0.0000000000, 0.0000000000, 0.0000000000, 0.0000000000, 0.0000000000, 0.0000000000, 0.0000000000, 0.0000000000, 0.0000000000, 0.0000000000, 0.0000000000, 0.0000000000, 0.0000000000, 0.0000000000, 0.0000000000, 0.0000000000, 0.0000000000, 0.0000000000, 0.0000000000, 0.0000000000, 0.0000000000, 0.0000000000, 0.0000000000, 0.0000000000, 0.0000000000, 0.0000000000, 0.0000000000, 0.0000000000, 0.0000000000, 0.0000000000, 0.0000000000, 0.0000000000, 0.0000000000, 0.0000000000, 0.0000000000, 0.0000000000, 0.0000000000, 0.0000000000, 0.0000000000, 0.0000000000, 0.0000000000, 0.0000000000, 0.0000000000, 0.0000000000, 0.0000000000, 0.0000000000, 0.0000000000, 0.0000000000, -0.0039062500, -0.0117187500, 0.0000000000, 0.0000000000, 0.0000000000, 0.0000000000, 0.0000000000, 0.0000000000, 0.0000000000, 0.0000000000, 0.0000000000, 0.0000000000, 0.0000000000, 0.0000000000, 0.0000000000, 0.0000000000, 0.0000000000, 0.0000000000, 0.0000000000, 0.0000000000, 0.0000000000, 0.0000000000, 0.0000000000, 0.0000000000, 0.0000000000, 0.0000000000, -0.0058593750, 0.0000000000, 0.0000000000, 0.0000000000, 0.0000000000, 0.0000000000, 0.0000000000, 0.0000000000, 0.0000000000, 0.0000000000, 0.0000000000, 0.0000000000, 0.0000000000, 0.0000000000, 0.0000000000, 0.0000000000, 0.0000000000, 0.0000000000, 0.0000000000, 0.0000000000, 0.0000000000, 0.0000000000, 0.0000000000, 0.0000000000, 0.0000000000, 0.0000000000, 0.0000000000, 0.0000000000, -0.0312500000, 0.0000000000, 0.0000000000, 0.0000000000, 0.0000000000, 0.0000000000, 0.0000000000, 0.0000000000, 0.0000000000, 0.0000000000, 0.0000000000, 0.0000000000, 0.0000000000, 0.0000000000, 0.0000000000, 0.0000000000, 0.0000000000, 0.0000000000, 0.0000000000, 0.0000000000, 0.0000000000, 0.0000000000, 0.0000000000, 0.0000000000, 0.0000000000, 0.0000000000, 0.0000000000, 0.0000000000, 0.0000000000, 0.0000000000, -0.0507812500, 0.0000000000, 0.0000000000, 0.0000000000, 0.0000000000, 0.0000000000, 0.0000000000, 0.0000000000, 0.0000000000, 0.0000000000, 0.0000000000, 0.0000000000, 0.0000000000, 0.0000000000, 0.0000000000, 0.0000000000, 0.0000000000, 0.0000000000, 0.0000000000, 0.0000000000, 0.0000000000, 0.0000000000, 0.0000000000, 0.0000000000, 0.0000000000, 0.0000000000, 0.0000000000, 0.0000000000, 0.0000000000, 0.0000000000, 0.0000000000, 0.0000000000, 0.0000000000, 0.0000000000, 0.0000000000, 0.0000000000, 0.0000000000, 0.0000000000, 0.0000000000, 0.0000000000, 0.0000000000, 0.0000000000, 0.0000000000, 0.0000000000, 0.0000000000, 0.0000000000, 0.0000000000, 0.0000000000, 0.0000000000, 0.0000000000, 0.0000000000, 0.0000000000, 0.0000000000, 0.0000000000, 0.0000000000, 0.0000000000, 0.0000000000, 0.0000000000, 0.0000000000, 0.0000000000, 0.0000000000, 0.0000000000, 0.0000000000, 0.0000000000, 0.0000000000, 0.0000000000, 0.0000000000, 0.0000000000, 0.0000000000, 0.0000000000, 0.0000000000, 0.0000000000, 0.0000000000, 0.0000000000, 0.0000000000, 0.0000000000, 0.0000000000, 0.0000000000, 0.0000000000, 0.0000000000, 0.0000000000, 0.0000000000, 0.0000000000, 0.0000000000, 0.0000000000, 0.0000000000, 0.0000000000, 0.0000000000, 0.0000000000, 0.0000000000, 0.0000000000, 0.0000000000, 0.0000000000, 0.0000000000, 0.0000000000, 0.0000000000, 0.0000000000, 0.0000000000, 0.0000000000, 0.0000000000, 0.0000000000, 0.0000000000, 0.0000000000, 0.0000000000, 0.0000000000, 0.0000000000, 0.0000000000, 0.0000000000, 0.0000000000, 0.0000000000, 0.0000000000, 0.0000000000, 0.0000000000, 0.0000000000, 0.0000000000, 0.0000000000, 0.0000000000, 0.0000000000, 0.0000000000, 0.0000000000, 0.0000000000, 0.0000000000, 0.0000000000, 0.0000000000, 0.0000000000, 0.0078125000, 0.0000000000, 0.0000000000, 0.0000000000, -0.0917968750, -0.0839843750, 0.0000000000, -0.1464843750, 0.0214843750, 0.0429687500, 0.0000000000, 0.0000000000, -0.0898437500, 0.0019531250, -0.0566406250, 0.0019531250, 0.0000000000, -0.0195312500, -0.1132812500, 0.0000000000, -0.0175781250, 0.0000000000, 0.0000000000, 0.0000000000, 0.0000000000, 0.0000000000, 0.0000000000, 0.0000000000, 0.0078125000, 0.0000000000, -0.0195312500, 0.0000000000, 0.0000000000, 0.0000000000, 0.0000000000, 0.0078125000, 0.0234375000, -0.0019531250, -0.0078125000, -0.0488281250, -0.0214843750, 0.0000000000, -0.0312500000, 0.0000000000, 0.0019531250, -0.0019531250, -0.0351562500, -0.0429687500, 0.0000000000, 0.0000000000, 0.0000000000, 0.0000000000, 0.0000000000, 0.0000000000, 0.0000000000, 0.0000000000, 0.0000000000, -0.0761718750, 0.0000000000, 0.0000000000, 0.0039062500, 0.0000000000, -0.0019531250, 0.0136718750, 0.0058593750, 0.0000000000, 0.0000000000, 0.0000000000, 0.0976562500, 0.0761718750, -0.0195312500, 0.0000000000, 0.0000000000, -0.0039062500, 0.0000000000, 0.0000000000, 0.0019531250, 0.0000000000, 0.0000000000, 0.0000000000, 0.0000000000, 0.0000000000, 0.0000000000, 0.0000000000, 0.0000000000, 0.0000000000, 0.0000000000, 0.0078125000, 0.0000000000, 0.0000000000, -0.0664062500, 0.0000000000, 0.0000000000, 0.0000000000, -0.0039062500, 0.0722656250, 0.0644531250, 0.0000000000, 0.0000000000, 0.0000000000, 0.0000000000, 0.0000000000, 0.0000000000, 0.0000000000, 0.0000000000, 0.0000000000, 0.0000000000, 0.0000000000, 0.0000000000, 0.0000000000, 0.0000000000, 0.0000000000, 0.0000000000, 0.0000000000, 0.0019531250, 0.0371093750, -0.0019531250, -0.0410156250, 0.0000000000, 0.0000000000, 0.0000000000, 0.0000000000, -0.0156250000, 0.0253906250, 0.0781250000, 0.0000000000, 0.0000000000, 0.0000000000, 0.0000000000, 0.0000000000, 0.0000000000, 0.0000000000, 0.0000000000, 0.0000000000, 0.0000000000, 0.0000000000, 0.0000000000, 0.0000000000, 0.0000000000, 0.0000000000, 0.0000000000, 0.0000000000, 0.0136718750, 0.0000000000, -0.0937500000, 0.0000000000, 0.0000000000, 0.0000000000, 0.0195312500, 0.0000000000, 0.0000000000, 0.0312500000, 0.0000000000, 0.0000000000, 0.0253906250, 0.0000000000, 0.0000000000, 0.0000000000, 0.0019531250, 0.0000000000, 0.0312500000, 0.0000000000, 0.0000000000, 0.0273437500, 0.0000000000, 0.0000000000, 0.0000000000, 0.0000000000, 0.0000000000, 0.0175781250, 0.0000000000, -0.0019531250, -0.0273437500, 0.0000000000, -0.0117187500, 0.0000000000, 0.0078125000, 0.0000000000, 0.0000000000, 0.0000000000, -0.0019531250, 0.0000000000, 0.0000000000, 0.0000000000, 0.0742187500, 0.0000000000, 0.0058593750, 0.0000000000, 0.0000000000, 0.0488281250, 0.0000000000, 0.0058593750, 0.0000000000, 0.0019531250, 0.0000000000, 0.0000000000, 0.0000000000, 0.0078125000, 0.0000000000, -0.0136718750, 0.0000000000, 0.0000000000, 0.0000000000, 0.0000000000, 0.0039062500, 0.0000000000, 0.0000000000, 0.0000000000, 0.0000000000, 0.0000000000, 0.0000000000, 0.0000000000, 0.0000000000, 0.0000000000, 0.0019531250, 0.0000000000, 0.0000000000, 0.0039062500, 0.0000000000, 0.0000000000, 0.0000000000, 0.0000000000, 0.0000000000, 0.0000000000, 0.0000000000, 0.0000000000, 0.0000000000, -0.0097656250, -0.0468750000, -0.0351562500, 0.0000000000, 0.0000000000, 0.0000000000, 0.0000000000, 0.0000000000, 0.0000000000, 0.0000000000, 0.0000000000, 0.0000000000, 0.0000000000, -0.0058593750, 0.0000000000, 0.0000000000, 0.0000000000, 0.0000000000, 0.0664062500, 0.0000000000, 0.0000000000, 0.0000000000, 0.0000000000, 0.0000000000, 0.0000000000, 0.0000000000, 0.0097656250, 0.0000000000, -0.0039062500, 0.0000000000, 0.0000000000, 0.0000000000, 0.0000000000, -0.0019531250, 0.0000000000, 0.0000000000, 0.0156250000, -0.0156250000, 0.0000000000, 0.0039062500, 0.0000000000, 0.0000000000, 0.1191406250, 0.0136718750, 0.0175781250, 0.0136718750, 0.0000000000, 0.0000000000, 0.0000000000, 0.0000000000, 0.0000000000, 0.0000000000, 0.0000000000, 0.0019531250, 0.0000000000, 0.0000000000, -0.0253906250, 0.0000000000, 0.0039062500, 0.0000000000, 0.0000000000, 0.0000000000, 0.0019531250, 0.0019531250, 0.0000000000, -0.0019531250, 0.0000000000, 0.0058593750, 0.0000000000, 0.0429687500, 0.0214843750, 0.0000000000, 0.0039062500, 0.0000000000, 0.0000000000, 0.0000000000, 0.0000000000, 0.0000000000, 0.0000000000, 0.0000000000, 0.0000000000, 0.0000000000, 0.0000000000, 0.0000000000, -0.0019531250, 0.0000000000, 0.0097656250, 0.0292968750, 0.0253906250, 0.0000000000, 0.0000000000, 0.0000000000, -0.0058593750, 0.0000000000, 0.0039062500, 0.0156250000, 0.0000000000, 0.0175781250, 0.0683593750, 0.0000000000, 0.0214843750, 0.0000000000, 0.0000000000, 0.0000000000, 0.0000000000, 0.0000000000, 0.0000000000, 0.0000000000, 0.0000000000, 0.0000000000, 0.0000000000, 0.0000000000, 0.0000000000, -0.0019531250, 0.0000000000, 0.0644531250, 0.0292968750, 0.0000000000, 0.0000000000, 0.0000000000, 0.0000000000, -0.0019531250, 0.0078125000, 0.0156250000, 0.0000000000, 0.0117187500, 0.0664062500, 0.0000000000, 0.0000000000, 0.0000000000, 0.0000000000, 0.0000000000, 0.0000000000, 0.0000000000, 0.0000000000, 0.0000000000, 0.0000000000, 0.0000000000, 0.0000000000, 0.0000000000, 0.0000000000, -0.0039062500, 0.0000000000, 0.0937500000, 0.0000000000, 0.0000000000, 0.0039062500, 0.0000000000, 0.0000000000, 0.0000000000, 0.0019531250, 0.0000000000, -0.0898437500, 0.0000000000, 0.0000000000, 0.0234375000, -0.0566406250, 0.0000000000, 0.0000000000, 0.0000000000, 0.0000000000, -0.0078125000, 0.0000000000, 0.0000000000, 0.0000000000, 0.0000000000, -0.0039062500, 0.0000000000, 0.0000000000, -0.0488281250, 0.0000000000, 0.0019531250, 0.0000000000, 0.0019531250, 0.0058593750, 0.0000000000, 0.0117187500, 0.0000000000, 0.0000000000, 0.0000000000, 0.0000000000, 0.0000000000, 0.0000000000, 0.0000000000, 0.0000000000, 0.0000000000, 0.0000000000, 0.0000000000, 0.0000000000, 0.0000000000, 0.0000000000, 0.0000000000, 0.0000000000, 0.0000000000, 0.0000000000, 0.0000000000, 0.0000000000, -0.0117187500, 0.0097656250, 0.0000000000, 0.0117187500, 0.0097656250, 0.0019531250, 0.0000000000, 0.0000000000, -0.0058593750, 0.0000000000, 0.0000000000, 0.0000000000, 0.0000000000, 0.0000000000, 0.0859375000, 0.0000000000, 0.0000000000, 0.0000000000, 0.0000000000, 0.0000000000, 0.0000000000, 0.0000000000, 0.0000000000, 0.0000000000, -0.0820312500, 0.0000000000, 0.0000000000, 0.0000000000, 0.0000000000, 0.0976562500, 0.0019531250, 0.0000000000, 0.0000000000, -0.0078125000, 0.0097656250, 0.0000000000, -0.0019531250, 0.0000000000, 0.0000000000, 0.0078125000, 0.0019531250, 0.0000000000, 0.0136718750, 0.0000000000, 0.0000000000, 0.0000000000, 0.0000000000, 0.0000000000, 0.0000000000, 0.0000000000, 0.0000000000, 0.0000000000, -0.0156250000, 0.0000000000, -0.0195312500, 0.0000000000, 0.0000000000, 0.0273437500, 0.0175781250, 0.0000000000, 0.0000000000, 0.0019531250, 0.0019531250, 0.0000000000, 0.0000000000, 0.0000000000, 0.0000000000, 0.0000000000, 0.0000000000, 0.0000000000, 0.0312500000, 0.0000000000, 0.0000000000, 0.0000000000, 0.0000000000, 0.0292968750, 0.0000000000, 0.0000000000, 0.0000000000, 0.0136718750, 0.0000000000, 0.0000000000, 0.0000000000, 0.0000000000, -0.0097656250, 0.0214843750, 0.0039062500, 0.0000000000, -0.0605468750, 0.0039062500, 0.0019531250, 0.0000000000, 0.0000000000, 0.0000000000, 0.0078125000, 0.0000000000, 0.0000000000, 0.0000000000, 0.0000000000, 0.0000000000, 0.0000000000, 0.0000000000, 0.0000000000, 0.0000000000, 0.0000000000, 0.0000000000, -0.0175781250, 0.0000000000, 0.0000000000, 0.0000000000, 0.0000000000, 0.0000000000, -0.0019531250, 0.0507812500, 0.0019531250, 0.0000000000, -0.0253906250, 0.0000000000, 0.0000000000, 0.0253906250, 0.0000000000, 0.0000000000, 0.0175781250, 0.0000000000, 0.0000000000, 0.0000000000, 0.0000000000, 0.0000000000, 0.0000000000, 0.0000000000, 0.0000000000, 0.0000000000, 0.0000000000, 0.0000000000, -0.0429687500, 0.0000000000, 0.0000000000, 0.0000000000, -0.0039062500, 0.0000000000, 0.0000000000, 0.0058593750, 0.0000000000, 0.0000000000, -0.0371093750, 0.0000000000, -0.0410156250, 0.0000000000, 0.0000000000, 0.0000000000, 0.0097656250, 0.0000000000, 0.0000000000, 0.0000000000, -0.0019531250, 0.0000000000, -0.0019531250, -0.0039062500, 0.0000000000, 0.0000000000, 0.0000000000, -0.0019531250, -0.0722656250, 0.0000000000, -0.0019531250, 0.0000000000, -0.0273437500, 0.0000000000, 0.0000000000, 0.0000000000, 0.0000000000, 0.0000000000, -0.0019531250, -0.0058593750, -0.1093750000, 0.0000000000, 0.0000000000, -0.0019531250, 0.0000000000, -0.0859375000, 0.0000000000, 0.0000000000, -0.0332031250, 0.0000000000, -0.0019531250, -0.0156250000, 0.0000000000, 0.0000000000, 0.0000000000, -0.0195312500, 0.0000000000, 0.0000000000, 0.0000000000, 0.0000000000, -0.0156250000, 0.0000000000, 0.0000000000, -0.0019531250, -0.0214843750, 0.0000000000, -0.0273437500, -0.0097656250, 0.0000000000, 0.0000000000, 0.0000000000, -0.0078125000, 0.0000000000, -0.0429687500, -0.0117187500, -0.0058593750, -0.0429687500, 0.0000000000, 0.0000000000, -0.0078125000, 0.0000000000, 0.0000000000, 0.0000000000, 0.0000000000, 0.0000000000, 0.0000000000, 0.0000000000, 0.0000000000, -0.0292968750, 0.0000000000, 0.0000000000, 0.0000000000, -0.0312500000, -0.0136718750, 0.0000000000, 0.0000000000, 0.0000000000, 0.0000000000, -0.0078125000, -0.0078125000, 0.0019531250, 0.0000000000, 0.0000000000, 0.0000000000, -0.0683593750, 0.0000000000, 0.0000000000, -0.0097656250, 0.0000000000, 0.0000000000, 0.0000000000, 0.0000000000, 0.0000000000, 0.0000000000, 0.0000000000, 0.0000000000, 0.0000000000, -0.0195312500, -0.0898437500, 0.0000000000, -0.0156250000, -0.0292968750, -0.0039062500, -0.0683593750, 0.0000000000, -0.0683593750, -0.0039062500, 0.0000000000, 0.0000000000, 0.0000000000, 0.0000000000, 0.0000000000, 0.0000000000, 0.0000000000, -0.0039062500, -0.0078125000, 0.0000000000, 0.0000000000, 0.0000000000, 0.0000000000, 0.0000000000, 0.0000000000, 0.0000000000, 0.0000000000, 0.0000000000, 0.0000000000, 0.0000000000, 0.0000000000, 0.0000000000, -0.0097656250, 0.0000000000, -0.0117187500, -0.0058593750, -0.1640625000, -0.0117187500, -0.1132812500, -0.0019531250, 0.0000000000, -0.0253906250, -0.0019531250, 0.0000000000, 0.0000000000, -0.0410156250, 0.0000000000, 0.0000000000, 0.0000000000, 0.0000000000, 0.0000000000, 0.0019531250, 0.0019531250, 0.0292968750, 0.0000000000, 0.0000000000, 0.0000000000, -0.0039062500, 0.0000000000, 0.0000000000, 0.0000000000, -0.0761718750, 0.0000000000, -0.0117187500, -0.0898437500, -0.1230468750, -0.1250000000, -0.0664062500, -0.1152343750, -0.0566406250, -0.0546875000, 0.0000000000, 0.0000000000, 0.0000000000, 0.0000000000, 0.0000000000, 0.0000000000, 0.0000000000, -0.0039062500, 0.0332031250, 0.0000000000, 0.0000000000, 0.0000000000, -0.0039062500, -0.0097656250, 0.0000000000, 0.0000000000, 0.0000000000, -0.0136718750, -0.0800781250, -0.0332031250, 0.0000000000, -0.1464843750, -0.0449218750, 0.0000000000, -0.0156250000, 0.0000000000, 0.0000000000, 0.0000000000, -0.0625000000, 0.0000000000, 0.0000000000, 0.0000000000, 0.0039062500, 0.0000000000, 0.0019531250, 0.0000000000, 0.0000000000, 0.0000000000, 0.0019531250, -0.0117187500, -0.0058593750, 0.0000000000, 0.0000000000, 0.0000000000, -0.0214843750, -0.0058593750, 0.0175781250, -0.0097656250, -0.0058593750, 0.0000000000, -0.1035156250, -0.0078125000, -0.0058593750, 0.0058593750, -0.0156250000, -0.0390625000, 0.0000000000, 0.0097656250, -0.0214843750, 0.0000000000, 0.0000000000, 0.0000000000, 0.0000000000, 0.0000000000, 0.0000000000, 0.0000000000, 0.0000000000, 0.0000000000, -0.0136718750, 0.0000000000, 0.0820312500, 0.0000000000, 0.0410156250, 0.1289062500, 0.0019531250, 0.0000000000, 0.0000000000, 0.0000000000, 0.0000000000, -0.0488281250, -0.0332031250, -0.0957031250, 0.0000000000, 0.0000000000, 0.0156250000, 0.0332031250, 0.1113281250, -0.0058593750, 0.0000000000, 0.0000000000, 0.0000000000, 0.0000000000, 0.0000000000, 0.0000000000, 0.0000000000, 0.0000000000, 0.0097656250, 0.0175781250, 0.0000000000, 0.0000000000, 0.0000000000, 0.0449218750, -0.0058593750, 0.0000000000, 0.0000000000, 0.0000000000, 0.0000000000, -0.0917968750, 0.0000000000, 0.0410156250, 0.0000000000, 0.0000000000, 0.0000000000, 0.0000000000, 0.0019531250, 0.0273437500, 0.0117187500, 0.0000000000, 0.0000000000, 0.0000000000, 0.0000000000, 0.0000000000, 0.0000000000, 0.0000000000, 0.0000000000, 0.0058593750, -0.0039062500, 0.0449218750, 0.0000000000, 0.0000000000, -0.0019531250, 0.0000000000, -0.0039062500, 0.0000000000, 0.0000000000, 0.0000000000, 0.0019531250, -0.0097656250, 0.0000000000, 0.0000000000, -0.0039062500, -0.0312500000, 0.0000000000, 0.0000000000, 0.0000000000, 0.0000000000, 0.0000000000, 0.0000000000, 0.0000000000, 0.0000000000, 0.0000000000, -0.0546875000, 0.0039062500, 0.0000000000, 0.0136718750, 0.0058593750, 0.0000000000, -0.0097656250, 0.0253906250, 0.0546875000, -0.0117187500, 0.0000000000, 0.0000000000, 0.0000000000, 0.0000000000, 0.0039062500, 0.0000000000, 0.0019531250, 0.0000000000, 0.0000000000, -0.0019531250, 0.0136718750, 0.0000000000, 0.0000000000, 0.0000000000, 0.0000000000, 0.0000000000, 0.0000000000, 0.0000000000, 0.0039062500, 0.0000000000, 0.0000000000, 0.0136718750, 0.0000000000, 0.0214843750, 0.0000000000, 0.0234375000, 0.0000000000, 0.0000000000, 0.0000000000, 0.0000000000, 0.0000000000, 0.0000000000, 0.0683593750, 0.0000000000, 0.0000000000, 0.0000000000, 0.0000000000, 0.0000000000, 0.0078125000, 0.0000000000, 0.0000000000, 0.0000000000, 0.0000000000, 0.0000000000, 0.0000000000, 0.0000000000, 0.0000000000, 0.0000000000, 0.0000000000, 0.0332031250, -0.0097656250, -0.0039062500, 0.0683593750, 0.0937500000, 0.0312500000, -0.0019531250, -0.0214843750, 0.0000000000, -0.0332031250, 0.0156250000, 0.0019531250, 0.0000000000, -0.0039062500, 0.0000000000, 0.0332031250, 0.0117187500, -0.0214843750, 0.0000000000, 0.0000000000, 0.0000000000, 0.0000000000, 0.0000000000, 0.0000000000, 0.0000000000, 0.0000000000, 0.0000000000, 0.0000000000, 0.0175781250, 0.0000000000, -0.0371093750, 0.0078125000, 0.0000000000, 0.0000000000, -0.0039062500, 0.0000000000, 0.0000000000, 0.0000000000, 0.0000000000, 0.0000000000, 0.0000000000, -0.0449218750, 0.0000000000, 0.0000000000, 0.0019531250, 0.0000000000, 0.0000000000, 0.0000000000, 0.0000000000, 0.0000000000, 0.0000000000, 0.0000000000, 0.0000000000, -0.0195312500, 0.0000000000, 0.0058593750, 0.0644531250, -0.0585937500, -0.0507812500, 0.0000000000, 0.0000000000, 0.0371093750, -0.0039062500, 0.0000000000, 0.0000000000, -0.0019531250, 0.0000000000, -0.0332031250, 0.0000000000, 0.0000000000, 0.0000000000, 0.0214843750, 0.0410156250, -0.0351562500, 0.0000000000, 0.0000000000, 0.0000000000, 0.0000000000, 0.0000000000, 0.0000000000, 0.0000000000, 0.0000000000, 0.0000000000, 0.0292968750, 0.0000000000, 0.0000000000, 0.0039062500, -0.0332031250, 0.0019531250, 0.0000000000, 0.0000000000, 0.0000000000, 0.0000000000, 0.0000000000, 0.0000000000, -0.0273437500, -0.1367187500, 0.0000000000, 0.0097656250, 0.0136718750, 0.0000000000, 0.0000000000, 0.0000000000, 0.0000000000, 0.0000000000, 0.0000000000, 0.0000000000, 0.0000000000, 0.0000000000, 0.0000000000, 0.0000000000, 0.0000000000, 0.0000000000, 0.0000000000, 0.0000000000, -0.0566406250, 0.0234375000, 0.0546875000, 0.0000000000, 0.0000000000, 0.0000000000, 0.0000000000, -0.0039062500, 0.0000000000, -0.0761718750, -0.0468750000, 0.0000000000, 0.0117187500, -0.0039062500, -0.0214843750, 0.0000000000, 0.0000000000, -0.0097656250, 0.0000000000, 0.0000000000, 0.0000000000, 0.0000000000, 0.0000000000, 0.0078125000, 0.0000000000, 0.0000000000, 0.0000000000, 0.0000000000, -0.0136718750, 0.0000000000, 0.0000000000, 0.0000000000, -0.0039062500, 0.0566406250, -0.0039062500, 0.0000000000, 0.0000000000, 0.0000000000, -0.0019531250, 0.0000000000, 0.0000000000, 0.0000000000, -0.0292968750, 0.0000000000, 0.0000000000, 0.0000000000, 0.0000000000, 0.0000000000, 0.0000000000, 0.0019531250, 0.0000000000, 0.0000000000, 0.0000000000, 0.0000000000, 0.0000000000, 0.0000000000, 0.0000000000, 0.0000000000, 0.0000000000, -0.0019531250, -0.0019531250, 0.0000000000, -0.0312500000, 0.0000000000, 0.0019531250, -0.0214843750, -0.0078125000, 0.0000000000, -0.0019531250, 0.0000000000, -0.0292968750, 0.0000000000, 0.0000000000, -0.0410156250, 0.0000000000, 0.0000000000, 0.0000000000, 0.0000000000, 0.0000000000, 0.0000000000, -0.0156250000, 0.0000000000, 0.0000000000, 0.0000000000, -0.0195312500, 0.0000000000, -0.0468750000, 0.0000000000, 0.0273437500, 0.0000000000, 0.0000000000, 0.0000000000, 0.0000000000, 0.0000000000, 0.0000000000, 0.0000000000, 0.0000000000, 0.0000000000, 0.0000000000, 0.0019531250, 0.0000000000, 0.0000000000, 0.0000000000, 0.0000000000, 0.0000000000, 0.0000000000, 0.0000000000, -0.0097656250, 0.0039062500, 0.0000000000, 0.0000000000, -0.0097656250, -0.0136718750, 0.0000000000, 0.0000000000, 0.0000000000, -0.0039062500, 0.0000000000, 0.0000000000, 0.0000000000, 0.0000000000, 0.0000000000, 0.0000000000, 0.0019531250, -0.0019531250, -0.0371093750, -0.0039062500, 0.0000000000, 0.0000000000, 0.0000000000, 0.0000000000, 0.0000000000, 0.0000000000, 0.0000000000, 0.0000000000, -0.0742187500, 0.0000000000, -0.0039062500, 0.0000000000, -0.0117187500, 0.0000000000, 0.0000000000, 0.0019531250, 0.0019531250, 0.0175781250, 0.0000000000, 0.0000000000, 0.0000000000, 0.0000000000, -0.0058593750, -0.0019531250, 0.0312500000, 0.0000000000, 0.0000000000, -0.0058593750, -0.0527343750, 0.0000000000, 0.0000000000, 0.0000000000, 0.0000000000, 0.0000000000, 0.0000000000, 0.0000000000, -0.0136718750, 0.0000000000, 0.0000000000, 0.0136718750, -0.0039062500, 0.0039062500, 0.0000000000, 0.0078125000, 0.0000000000, 0.0000000000, 0.0117187500, 0.0000000000, 0.0000000000, 0.0000000000, -0.0078125000, 0.0000000000, 0.0097656250, 0.0000000000, -0.0058593750, -0.0019531250, 0.0000000000, 0.0000000000, 0.0000000000, 0.0000000000, 0.0000000000, 0.0000000000, 0.0000000000, 0.0000000000, -0.0605468750, 0.0000000000, 0.0000000000, 0.0019531250, -0.0039062500, 0.0000000000, 0.0000000000, 0.0000000000, 0.0000000000, -0.0019531250, 0.0000000000, 0.0000000000, -0.0078125000, 0.0000000000, -0.0019531250, -0.0078125000, 0.0488281250, 0.0000000000, 0.0000000000, 0.0000000000, 0.0000000000, 0.0000000000, -0.0019531250, 0.0000000000, 0.0000000000, 0.0000000000, 0.0000000000, 0.0000000000, 0.0000000000, 0.0136718750, 0.0000000000, 0.0097656250, -0.0058593750, 0.0000000000, -0.0195312500, -0.0136718750, 0.0000000000, 0.0546875000, 0.0039062500, -0.0410156250, 0.0000000000, 0.0000000000, 0.0000000000, -0.0234375000, 0.0507812500, 0.0000000000, 0.0000000000, 0.0000000000, 0.0000000000, -0.0605468750, -0.0664062500, 0.0000000000, 0.0000000000, 0.0000000000, 0.0000000000, 0.0000000000, 0.0000000000, 0.0273437500, 0.0019531250, 0.0000000000, -0.0468750000, -0.0351562500, -0.0019531250, 0.0019531250, 0.0000000000, 0.0000000000, 0.0000000000, 0.0000000000, -0.0019531250, 0.0000000000, 0.0000000000, 0.0000000000, 0.0000000000, 0.0000000000, 0.0000000000, 0.0000000000, 0.0000000000, -0.0371093750, 0.0000000000, -0.0703125000, 0.0000000000, 0.0000000000, -0.0117187500, 0.0000000000, 0.0000000000, 0.0390625000, 0.0000000000, 0.0000000000, -0.0703125000, 0.0000000000, 0.0000000000, 0.0019531250, 0.0000000000, 0.0000000000, -0.0078125000, 0.0000000000, 0.0000000000, 0.0000000000, 0.0000000000, -0.0195312500, -0.0273437500, 0.0000000000, 0.0000000000, -0.0253906250, 0.0000000000, -0.0605468750, 0.0000000000, 0.0000000000, 0.0000000000, 0.0000000000, -0.0117187500, 0.0000000000, 0.0000000000, 0.0000000000, 0.0000000000, 0.0078125000, 0.0000000000, 0.0000000000, 0.0000000000, 0.0000000000, 0.0000000000, 0.0000000000, 0.0546875000, -0.0234375000, 0.0000000000, 0.0000000000, 0.0039062500, 0.0000000000, -0.0820312500, 0.0000000000, -0.0312500000, 0.0000000000, 0.0000000000, 0.0000000000, 0.0000000000, 0.0000000000, 0.0000000000, 0.0000000000, -0.0136718750, 0.0000000000, 0.0000000000, 0.0000000000, -0.0136718750, -0.1093750000, 0.0019531250, 0.0039062500, 0.0000000000, 0.0000000000, 0.0000000000, 0.0000000000, 0.0000000000, 0.0000000000, 0.0000000000, 0.0000000000, 0.0058593750, 0.0000000000, -0.0019531250, 0.0000000000, -0.0039062500, -0.0585937500, 0.0000000000, 0.0000000000, 0.0000000000, 0.0000000000, 0.0000000000, 0.0000000000, -0.0097656250, 0.0000000000, 0.0078125000, 0.0000000000, -0.0449218750, 0.0000000000, 0.0000000000, 0.0546875000, 0.0000000000, 0.0410156250, 0.0000000000, 0.0000000000, 0.0000000000, 0.0000000000, 0.0039062500, 0.0000000000, 0.0000000000, 0.0000000000, 0.0000000000, 0.0097656250, 0.0000000000, -0.0839843750, 0.0000000000, 0.0000000000, 0.0000000000, 0.0000000000, 0.0000000000, 0.0000000000, 0.0000000000, 0.0000000000, 0.0000000000, 0.0000000000, 0.0000000000, 0.0097656250, 0.0078125000, 0.0214843750, 0.0195312500, 0.0000000000, 0.0000000000, 0.0000000000, 0.0000000000, 0.0429687500, 0.0000000000, 0.0000000000, 0.0000000000, 0.0781250000, 0.0000000000, 0.0156250000, 0.0332031250, 0.0000000000, 0.0000000000, 0.0058593750, 0.0000000000, 0.0000000000, 0.0000000000, 0.0000000000, -0.0253906250, 0.0000000000, 0.0332031250, 0.0000000000, 0.0019531250, 0.0195312500, 0.0019531250, 0.0000000000, 0.0000000000, 0.0000000000, 0.0000000000, 0.0664062500, 0.0000000000, 0.0117187500, 0.0000000000, -0.0078125000, 0.0000000000, 0.0000000000, 0.0019531250, 0.0097656250, 0.0839843750, 0.0000000000, 0.0000000000, 0.0039062500, 0.0000000000, 0.0000000000, -0.0292968750, 0.0000000000, 0.0000000000, -0.0019531250, 0.0039062500, 0.0000000000, 0.0000000000, 0.0000000000, 0.0000000000, -0.0078125000, -0.0292968750, 0.0000000000, 0.0000000000, 0.0000000000, 0.0000000000, -0.0058593750, -0.0097656250, -0.0332031250, 0.0000000000, -0.0058593750, 0.0937500000, 0.1132812500, 0.0000000000, 0.0000000000, 0.0000000000, 0.0000000000, -0.0019531250, 0.0000000000, 0.0000000000, 0.0000000000, 0.0000000000, 0.0000000000, 0.0000000000, -0.0527343750, -0.1113281250, 0.0000000000, 0.0000000000, 0.0000000000, -0.0175781250, -0.0039062500, -0.0683593750, -0.0039062500, -0.0078125000, -0.0078125000, -0.0019531250, 0.0000000000, -0.0097656250, -0.0097656250, 