//Numpy array shape [100, 10]
//Min -0.789062500000
//Max 0.628906250000
//Number of zeros 361

#ifndef W8_H_
#define W8_H_

#ifndef __SYNTHESIS__
weight8_t w8[1000];
#else
weight8_t w8[1000] = {-0.0957031250, 0.0078125000, -0.0117187500, 0.0000000000, 0.0156250000, 0.0000000000, -0.0957031250, 0.0000000000, -0.4375000000, 0.0292968750, 0.0000000000, 0.0156250000, 0.0214843750, 0.0214843750, 0.0000000000, 0.0000000000, 0.0312500000, 0.0000000000, 0.0410156250, 0.0058593750, 0.0000000000, 0.0000000000, 0.0000000000, 0.2832031250, -0.0039062500, 0.0000000000, 0.0000000000, 0.0234375000, -0.3691406250, 0.0000000000, 0.0000000000, 0.0000000000, -0.0078125000, 0.0175781250, -0.5507812500, 0.2929687500, 0.0000000000, 0.2402343750, -0.4980468750, 0.0000000000, 0.0039062500, -0.3261718750, 0.0000000000, 0.0000000000, 0.0000000000, 0.0000000000, 0.0253906250, 0.0390625000, 0.0000000000, 0.0117187500, -0.0292968750, 0.0195312500, 0.0234375000, 0.2636718750, -0.0449218750, 0.0449218750, -0.3183593750, 0.0058593750, -0.3457031250, 0.0410156250, 0.0019531250, 0.0546875000, 0.0000000000, -0.0039062500, -0.5625000000, 0.0292968750, 0.0000000000, 0.0195312500, 0.0000000000, -0.0136718750, 0.0332031250, 0.0449218750, 0.0058593750, -0.0722656250, -0.4003906250, 0.0000000000, -0.3222656250, 0.0585937500, -0.0351562500, 0.0000000000, -0.0019531250, 0.0117187500, 0.6054687500, 0.0078125000, 0.0097656250, 0.0019531250, 0.0000000000, 0.0722656250, -0.0234375000, -0.0234375000, 0.0234375000, -0.0117187500, 0.0000000000, 0.3105468750, 0.0000000000, 0.0332031250, -0.0195312500, -0.4316406250, 0.0136718750, -0.6015625000, -0.0058593750, 0.0000000000, -0.0429687500, -0.3789062500, -0.4687500000, 0.0000000000, 0.0000000000, 0.0000000000, 0.0000000000, 0.0000000000, 0.0000000000, -0.3632812500, -0.4746093750, -0.0058593750, -0.0117187500, 0.0000000000, -0.0058593750, 0.0000000000, 0.2402343750, -0.5488281250, -0.4316406250, -0.0976562500, 0.0000000000, 0.0000000000, 0.0234375000, -0.0097656250, 0.0000000000, 0.0000000000, 0.0039062500, 0.0000000000, 0.0000000000, 0.0000000000, 0.0000000000, -0.0058593750, -0.0390625000, -0.0078125000, 0.0000000000, -0.0058593750, 0.4589843750, 0.0000000000, -0.7558593750, 0.0000000000, -0.3574218750, 0.0000000000, 0.0000000000, 0.3183593750, -0.2656250000, 0.0000000000, 0.0000000000, 0.0000000000, 0.0000000000, 0.0000000000, 0.0000000000, -0.0234375000, 0.0000000000, -0.4628906250, 0.0000000000, 0.4863281250, 0.0000000000, -0.0351562500, -0.0332031250, 0.0019531250, -0.0175781250, 0.0000000000, 0.2988281250, 0.0000000000, 0.0000000000, 0.0097656250, 0.0000000000, 0.0000000000, -0.5507812500, -0.0058593750, 0.0000000000, 0.0000000000, 0.0000000000, 0.0000000000, 0.1621093750, 0.4804687500, 0.2617187500, 0.0000000000, 0.3125000000, 0.0000000000, 0.0000000000, 0.0000000000, 0.0000000000, 0.0000000000, 0.0000000000, 0.0000000000, -0.4824218750, -0.3574218750, -0.0839843750, -0.0058593750, 0.0058593750, -0.0312500000, 0.0000000000, 0.0000000000, -0.0019531250, 0.0000000000, 0.0117187500, -0.5195312500, -0.4296875000, 0.0097656250, 0.0000000000, 0.0039062500, 0.0000000000, -0.3437500000, 0.0058593750, -0.0039062500, 0.0000000000, 0.0000000000, -0.4160156250, 0.3437500000, 0.0117187500, 0.3964843750, 0.0000000000, 0.0566406250, 0.2871093750, 0.0000000000, 0.0488281250, 0.0000000000, -0.0136718750, -0.0332031250, 0.0058593750, 0.0253906250, 0.0000000000, 0.0078125000, 0.0000000000, 0.0468750000, -0.0078125000, 0.0000000000, -0.0019531250, -0.5000000000, -0.4296875000, 0.0078125000, 0.0175781250, -0.3925781250, 0.0000000000, -0.2968750000, 0.0136718750, 0.0390625000, 0.0000000000, 0.0000000000, 0.0000000000, 0.0000000000, -0.2714843750, -0.3164062500, -0.1718750000, -0.0644531250, 0.0000000000, 0.0000000000, 0.0000000000, 0.0664062500, 0.0000000000, 0.0039062500, -0.0312500000, 0.2539062500, 0.4882812500, -0.2421875000, -0.4257812500, 0.0000000000, 0.0039062500, 0.0000000000, 0.0000000000, -0.3652343750, 0.3281250000, -0.0371093750, -0.0078125000, 0.0371093750, 0.0136718750, 0.0000000000, 0.2285156250, 0.0097656250, -0.5019531250, -0.5488281250, -0.0625000000, -0.0195312500, 0.0019531250, 0.0195312500, 0.2539062500, 0.0000000000, -0.0039062500, 0.0000000000, -0.5078125000, -0.0078125000, 0.0117187500, -0.0175781250, -0.4414062500, -0.4531250000, 0.0000000000, -0.6093750000, 0.0000000000, 0.0097656250, -0.2656250000, 0.0097656250, 0.0000000000, 0.0410156250, -0.0097656250, 0.0000000000, -0.4648437500, -0.0214843750, 0.4960937500, 0.0000000000, 0.0000000000, 0.0000000000, -0.0332031250, 0.0078125000, 0.0000000000, 0.0058593750, 0.0000000000, -0.4023437500, 0.0000000000, 0.0019531250, 0.0253906250, -0.0097656250, 0.0000000000, -0.0058593750, 0.0000000000, 0.0000000000, -0.0546875000, 0.0253906250, 0.0000000000, -0.5429687500, 0.0000000000, -0.4882812500, 0.0000000000, -0.4472656250, 0.0000000000, 0.2363281250, 0.0390625000, 0.0000000000, 0.0195312500, 0.0000000000, 0.0000000000, 0.0273437500, 0.0878906250, 0.0019531250, 0.0000000000, -0.0039062500, -0.4960937500, 0.0156250000, 0.0253906250, 0.0000000000, 0.0000000000, 0.0000000000, 0.3945312500, -0.0019531250, -0.0292968750, -0.0078125000, 0.0000000000, -0.4726562500, 0.0000000000, 0.0195312500, 0.0000000000, -0.0039062500, -0.0097656250, -0.0546875000, 0.0351562500, -0.0332031250, 0.0000000000, -0.0156250000, 0.0273437500, -0.5507812500, -0.0039062500, 0.0000000000, 0.0000000000, -0.0585937500, 0.0000000000, 0.0117187500, -0.4082031250, 0.0000000000, -0.0019531250, -0.5566406250, -0.0019531250, 0.0019531250, 0.0000000000, 0.3300781250, -0.4316406250, -0.5156250000, 0.0000000000, 0.0000000000, 0.0000000000, 0.0000000000, -0.0371093750, 0.0000000000, -0.4804687500, 0.0000000000, 0.3066406250, 0.0000000000, 0.3867187500, 0.0371093750, -0.4433593750, 0.0000000000, 0.0000000000, -0.0410156250, 0.0488281250, 0.0000000000, 0.2246093750, 0.0585937500, 0.0000000000, 0.0312500000, 0.0214843750, -0.3847656250, -0.0019531250, -0.0195312500, 0.3300781250, 0.0000000000, -0.0097656250, 0.0000000000, 0.0253906250, 0.3007812500, 0.0175781250, -0.0273437500, -0.3496093750, -0.0175781250, 0.0000000000, -0.5078125000, -0.0078125000, 0.0000000000, 0.0390625000, 0.0019531250, 0.0000000000, -0.0175781250, -0.0097656250, -0.4335937500, -0.0019531250, -0.0039062500, 0.0000000000, 0.0058593750, 0.0312500000, 0.0000000000, 0.0000000000, 0.0312500000, 0.0507812500, -0.3847656250, -0.3300781250, -0.2734375000, 0.0000000000, 0.0136718750, -0.4316406250, 0.0000000000, 0.0000000000, 0.0234375000, 0.0058593750, 0.0000000000, 0.0351562500, 0.0195312500, 0.0000000000, -0.6230468750, 0.0000000000, 0.0000000000, -0.0039062500, -0.0039062500, -0.0019531250, -0.0136718750, 0.3632812500, 0.0000000000, -0.3906250000, -0.3281250000, 0.0000000000, -0.3300781250, -0.3574218750, 0.0039062500, -0.0039062500, 0.0000000000, 0.0000000000, 0.3964843750, 0.0000000000, -0.2382812500, 0.0117187500, -0.0019531250, -0.4628906250, 0.0351562500, 0.0332031250, 0.4863281250, 0.0234375000, -0.0273437500, 0.0253906250, 0.0156250000, 0.2734375000, 0.0000000000, -0.4472656250, 0.0117187500, 0.0527343750, 0.0039062500, -0.0078125000, -0.0078125000, -0.0019531250, 0.1035156250, -0.0019531250, -0.3261718750, 0.0039062500, 0.0000000000, 0.2988281250, -0.0410156250, 0.0000000000, 0.0000000000, 0.0058593750, 0.0000000000, -0.4218750000, 0.0000000000, 0.0117187500, -0.1171875000, 0.0000000000, -0.0058593750, 0.0000000000, 0.0019531250, 0.0000000000, 0.0000000000, 0.0000000000, 0.0058593750, 0.0000000000, -0.0019531250, 0.0214843750, 0.0000000000, 0.0000000000, 0.2851562500, 0.1914062500, 0.0000000000, 0.3691406250, 0.0000000000, 0.0000000000, 0.0000000000, 0.0000000000, -0.0605468750, 0.1289062500, 0.0175781250, 0.0000000000, -0.3867187500, 0.0000000000, -0.0214843750, 0.4140625000, -0.5859375000, 0.0000000000, 0.2968750000, 0.0019531250, -0.5234375000, 0.0000000000, 0.0000000000, 0.0175781250, 0.0000000000, 0.0000000000, 0.0000000000, 0.0000000000, 0.0000000000, -0.3613281250, 0.0000000000, 0.0000000000, 0.0000000000, 0.0000000000, -0.5351562500, 0.3574218750, -0.0273437500, -0.4335937500, 0.0332031250, 0.0000000000, 0.0019531250, 0.0000000000, 0.0000000000, 0.0000000000, -0.4863281250, -0.5117187500, -0.0253906250, 0.0000000000, 0.4453125000, 0.0039062500, -0.4003906250, 0.6289062500, -0.4121093750, 0.3632812500, 0.2929687500, 0.0000000000, 0.0136718750, 0.0019531250, 0.0000000000, 0.0195312500, 0.0019531250, 0.0000000000, 0.0000000000, -0.7304687500, 0.0000000000, 0.0546875000, -0.6054687500, 0.0136718750, 0.0019531250, -0.4472656250, 0.0234375000, 0.0019531250, -0.0332031250, -0.7304687500, 0.0000000000, 0.0019531250, -0.5722656250, -0.5039062500, -0.0253906250, 0.1894531250, 0.0000000000, 0.0019531250, -0.0429687500, 0.0273437500, 0.0058593750, 0.0449218750, 0.0175781250, 0.2675781250, 0.0000000000, -0.3828125000, 0.0000000000, -0.3593750000, 0.0000000000, -0.4160156250, 0.0000000000, 0.0507812500, -0.0019531250, -0.0253906250, -0.0312500000, 0.0000000000, -0.3671875000, -0.4218750000, 0.0000000000, -0.6640625000, 0.0000000000, 0.0117187500, 0.3886718750, 0.0039062500, 0.3535156250, 0.0214843750, 0.3593750000, 0.0000000000, -0.5195312500, 0.0078125000, 0.0000000000, 0.0000000000, 0.0390625000, 0.0449218750, -0.0097656250, 0.0488281250, 0.3710937500, 0.0000000000, 0.0117187500, -0.0253906250, -0.0292968750, 0.0058593750, 0.0000000000, -0.0019531250, 0.0000000000, 0.0000000000, 0.0000000000, 0.0000000000, -0.3828125000, 0.0000000000, -0.0214843750, 0.0000000000, -0.3476562500, -0.0117187500, 0.0058593750, 0.0097656250, -0.0039062500, 0.0136718750, 0.0000000000, 0.5214843750, 0.0117187500, 0.0039062500, -0.0078125000, 0.3007812500, 0.0039062500, -0.0058593750, -0.0527343750, 0.0078125000, -0.2988281250, -0.0039062500, 0.0000000000, 0.2343750000, -0.3750000000, 0.0000000000, 0.0000000000, 0.4003906250, -0.0234375000, 0.0039062500, -0.2949218750, -0.2753906250, 0.0000000000, 0.2929687500, 0.0000000000, -0.5253906250, 0.0214843750, 0.0136718750, 0.0000000000, -0.0117187500, -0.4687500000, 0.0058593750, 0.0078125000, 0.0078125000, 0.0039062500, 0.0000000000, 0.0000000000, 0.0000000000, -0.3242187500, 0.0156250000, 0.0039062500, 0.0156250000, 0.4121093750, 0.0039062500, 0.0000000000, 0.0000000000, 0.2187500000, 0.0195312500, 0.3886718750, 0.0000000000, 0.0019531250, 0.2285156250, -0.4355468750, -0.0058593750, 0.0000000000, 0.0000000000, -0.6464843750, 0.0000000000, 0.0019531250, -0.4375000000, 0.0000000000, 0.0175781250, 0.1816406250, 0.0000000000, -0.3535156250, -0.3964843750, -0.0449218750, -0.5253906250, -0.4492187500, 0.0000000000, 0.0292968750, 0.0273437500, 0.0000000000, 0.0175781250, 0.2500000000, -0.0058593750, 0.0039062500, 0.0078125000, 0.0000000000, 0.0000000000, -0.0156250000, 0.2480468750, 0.0000000000, 0.0000000000, 0.0214843750, 0.0000000000, 0.0000000000, 0.0000000000, 0.0000000000, 0.0000000000, 0.0000000000, 0.0000000000, 0.2656250000, 0.0000000000, 0.0859375000, 0.0019531250, -0.5996093750, -0.0234375000, -0.0664062500, -0.4375000000, 0.0000000000, -0.0312500000, -0.2578125000, 0.2714843750, 0.0097656250, -0.0351562500, -0.0351562500, 0.0000000000, 0.2519531250, -0.1328125000, 0.0292968750, -0.0039062500, 0.0000000000, 0.0000000000, 0.0097656250, 0.0000000000, 0.0156250000, -0.1289062500, -0.4316406250, -0.2929687500, 0.0000000000, -0.0546875000, 0.0000000000, -0.0644531250, -0.4550781250, 0.0000000000, -0.5156250000, 0.0000000000, -0.3183593750, 0.0000000000, 0.0410156250, 0.0253906250, 0.0000000000, -0.4218750000, 0.0000000000, -0.2402343750, 0.0000000000, 0.0000000000, -0.5136718750, -0.5507812500, 0.3847656250, 0.0000000000, -0.3984375000, -0.0644531250, 0.3574218750, -0.0058593750, 0.0000000000, 0.2832031250, 0.0000000000, 0.0000000000, -0.0058593750, 0.3710937500, -0.0039062500, 0.0000000000, -0.4726562500, 0.0000000000, -0.0136718750, 0.0000000000, -0.4511718750, 0.0000000000, 0.0000000000, 0.0136718750, -0.5449218750, 0.0000000000, 0.0371093750, 0.0000000000, -0.0117187500, 0.0000000000, -0.7636718750, 0.0000000000, -0.3359375000, -0.4394531250, 0.0000000000, -0.3437500000, 0.0136718750, 0.0000000000, -0.0410156250, -0.0136718750, -0.6523437500, 0.0000000000, -0.0390625000, 0.0000000000, -0.4335937500, 0.0000000000, 0.0000000000, 0.0000000000, 0.0000000000, 0.0000000000, 0.0000000000, -0.3320312500, 0.4863281250, 0.0000000000, 0.0175781250, 0.0000000000, -0.0156250000, 0.0000000000, -0.0078125000, -0.0039062500, -0.0527343750, 0.0000000000, 0.0000000000, -0.1035156250, 0.0097656250, 0.0273437500, 0.0019531250, -0.0566406250, -0.0371093750, -0.0566406250, 0.0000000000, 0.0000000000, 0.0000000000, 0.1796875000, 0.0000000000, -0.0156250000, -0.3457031250, -0.5390625000, 0.0000000000, 0.0000000000, 0.6191406250, -0.6152343750, -0.4433593750, 0.0000000000, 0.0000000000, -0.0214843750, 0.0058593750, 0.0000000000, -0.3886718750, 0.0000000000, 0.4453125000, 0.0039062500, 0.0429687500, 0.0039062500, 0.4199218750, 0.0000000000, 0.0000000000, 0.0000000000, -0.0117187500, 0.0000000000, -0.0156250000, 0.0019531250, 0.0117187500, -0.3710937500, 0.3867187500, -0.4589843750, -0.3789062500, 0.0000000000, 0.0000000000, -0.0078125000, -0.5820312500, 0.0000000000, -0.3535156250, 0.0000000000, -0.4648437500, 0.0039062500, 0.0000000000, 0.0117187500, 0.0000000000, 0.0000000000, 0.2343750000, 0.3808593750, 0.0000000000, -0.7617187500, 0.0000000000, 0.0000000000, 0.0039062500, 0.0000000000, 0.0058593750, -0.7890625000, 0.0058593750, 0.0000000000, 0.0136718750, -0.0195312500, 0.0000000000, -0.5507812500, 0.0234375000, 0.0000000000, -0.0058593750, 0.0039062500, -0.0156250000, 0.0000000000, 0.0136718750, -0.0039062500, 0.0019531250, 0.0000000000, -0.4667968750, 0.0000000000, 0.0000000000, 0.0000000000, 0.0000000000, 0.0234375000, 0.0175781250, 0.0000000000, 0.3222656250, 0.0000000000, -0.4394531250, 0.0332031250, 0.0000000000, -0.2773437500, 0.0117187500, 0.0000000000, 0.0000000000, 0.0000000000, 0.0039062500, 0.0078125000, 0.0156250000, -0.0449218750, 0.0019531250, 0.0000000000, 0.0175781250, -0.0234375000, -0.6523437500, -0.4843750000, 0.0000000000, -0.5058593750, 0.0000000000, 0.0175781250, -0.0117187500, 0.0000000000, 0.0351562500, 0.4062500000, 0.0000000000, 0.0000000000, 0.0000000000, -0.0683593750, -0.4101562500, 0.0000000000, 0.0000000000, 0.0000000000, 0.0078125000, 0.0000000000, 0.0000000000, 0.0019531250, 0.0156250000, 0.0546875000, 0.0019531250, 0.0136718750, 0.0156250000, 0.0000000000, 0.0078125000, 0.0117187500, -0.0195312500, 0.0000000000, 0.0156250000};
#endif

#endif
